1000 50
</s> -0.010000 -0.000949 -0.000157 0.007802 -0.004775 0.009160 0.000275 0.003503 0.002693 -0.000599 0.002116 0.007509 0.006414 0.003036 0.003444 0.005029 -0.005577 -0.007318 0.001901 0.007887 -0.006720 0.008236 -0.000243 -0.009482 0.002523 -0.004002 -0.009337 -0.004473 0.009624 0.006939 -0.000160 0.002124 0.002150 -0.003164 -0.003439 -0.009075 -0.009343 -0.009820 0.009702 -0.009068 -0.006134 -0.008558 0.006518 -0.006201 0.003556 0.004342 0.003762 -0.002697 -0.006839 0.001996
, 0.094044 0.195893 -0.155718 -0.449506 -0.160736 0.000748 -0.138087 -0.004585 -0.121695 -0.087401 0.018703 0.081959 0.106759 -0.016001 -0.009896 -0.162624 0.014549 0.010382 0.208517 -0.029570 0.180953 0.132365 0.019936 -0.040737 0.019822 0.131696 -0.082430 -0.096060 0.158126 -0.151579 0.035982 0.015035 0.064882 0.080235 0.076560 0.160227 0.067308 0.141098 0.022217 -0.103135 -0.029701 0.006067 0.287858 -0.100301 -0.087588 0.054029 0.039782 0.035716 0.056925 0.183519
de -0.036609 -0.202569 0.329598 -0.003374 0.106534 -0.192507 0.058306 -0.219714 -0.146241 -0.258969 0.167497 0.232043 0.045744 -0.090440 -0.305267 -0.429604 0.227699 0.157796 0.259962 -0.143025 0.124564 -0.183434 -0.007291 -0.403225 -0.195288 -0.044731 0.082876 0.002303 -0.024657 -0.179588 -0.153900 -0.044361 -0.010335 0.353205 0.266641 0.245935 0.182581 0.272554 -0.093561 -0.266258 0.023080 -0.235600 0.014926 -0.034316 0.005626 -0.238506 -0.029600 -0.076428 0.238449 0.046809
. 0.058593 0.129549 -0.034350 -0.473834 0.063438 -0.033615 -0.125483 -0.199749 -0.382868 -0.016156 0.249832 0.055642 0.183288 0.040003 0.173663 0.024672 -0.043506 0.065769 0.338602 -0.103731 0.391395 0.144924 -0.003564 -0.185918 0.019255 0.092935 -0.256902 -0.379843 0.430628 -0.147584 0.039625 -0.019544 0.132334 -0.232604 -0.080251 0.288957 -0.084509 0.157249 -0.194034 -0.309609 -0.166377 -0.272061 0.326051 -0.179171 -0.314521 0.364482 -0.239347 0.052299 -0.087457 0.121807
a 0.200179 -0.111463 -0.124474 -0.143194 0.190161 0.151548 0.007449 -0.106586 -0.153673 -0.247925 0.165995 -0.305338 -0.115046 0.172081 0.207337 0.200857 -0.145173 -0.059243 0.343328 -0.092067 0.152816 -0.050064 0.047828 0.030060 -0.238628 0.101801 0.260110 -0.033052 -0.478083 0.061925 -0.177172 0.165640 0.074349 0.277788 0.006861 -0.108172 0.308546 0.217964 -0.117672 0.233809 -0.024234 -0.443718 0.059637 -0.164946 0.169989 0.423277 -0.229754 0.031898 0.448433 0.080003
o 0.340967 0.022053 -0.235979 0.085716 -0.346366 0.113650 0.069787 0.155209 -0.435382 0.113208 0.423908 -0.417505 0.397896 0.087612 0.339921 0.264150 0.019912 -0.031918 0.030176 0.155701 -0.044462 -0.393373 -0.370404 -0.068151 -0.189808 0.138100 0.174117 0.118940 0.028217 -0.252848 -0.556146 -0.056661 -0.191174 0.053176 0.102511 -0.136588 0.056714 0.216891 -0.072086 -0.287609 0.157493 -0.038777 -0.230027 -0.100157 -0.056518 0.093547 0.046331 0.199101 0.089292 0.356739
e -0.074535 -0.157813 0.050104 -0.193485 0.230980 -0.047589 -0.076649 -0.143546 -0.252615 0.134792 0.126196 0.094769 -0.008797 -0.144708 -0.205632 -0.050422 0.028074 0.050260 0.241963 -0.014062 0.016932 -0.038888 0.126879 -0.162971 -0.072482 -0.014497 -0.166432 0.028176 0.108307 -0.094288 -0.026637 -0.045653 -0.108930 -0.178691 0.006865 0.046574 -0.124117 -0.036855 -0.219427 -0.172301 0.145210 -0.243447 -0.086622 0.002801 0.191723 -0.015311 -0.094917 -0.055859 0.077920 0.137800
que 0.177320 -0.229680 -0.187163 -0.024596 0.117165 -0.319028 -0.000582 -0.381351 -0.198060 -0.073308 0.070473 0.213238 -0.355316 -0.133156 -0.011304 0.072251 0.301046 0.360901 0.170384 0.161110 0.101828 0.269821 0.030177 0.148400 0.239438 0.245977 0.037340 0.052609 0.016269 0.077592 -0.111851 0.072521 -0.200868 -0.213540 -0.246238 -0.203574 0.137485 -0.182957 0.172068 -0.196284 0.310117 -0.493182 -0.037584 0.109424 0.234818 -0.010548 -0.019832 -0.072182 -0.439734 0.131893
do 0.233364 0.018330 -0.029689 -0.028246 -0.144499 -0.058211 0.028090 -0.139562 -0.230117 -0.140891 0.299233 -0.223549 0.525832 -0.116352 0.322948 -0.260643 0.100148 -0.057494 0.245338 0.127645 0.173915 -0.780563 -0.140235 -0.433155 -0.158851 -0.239212 -0.042770 0.169747 -0.122377 -0.286761 -0.219842 -0.139996 -0.284710 0.249575 0.026525 0.063885 -0.310210 -0.014853 -0.029072 -0.568299 0.214625 -0.031304 -0.028084 0.181681 0.012998 -0.285513 -0.002480 0.380533 0.075393 0.169343
da 0.007640 -0.323097 0.029629 -0.431999 0.014476 0.073245 0.003348 -0.212474 0.145776 -0.406986 0.386585 -0.038679 -0.033343 0.158346 0.421847 -0.137008 -0.081475 -0.002636 0.595604 -0.297318 0.327884 -0.195311 0.263821 -0.378928 0.006665 -0.272130 0.206708 0.134418 -0.377504 0.050128 0.005312 0.038030 -0.003324 0.477234 0.173191 -0.094038 -0.191620 -0.130432 -0.047261 -0.031871 -0.206150 -0.439939 0.191011 0.292545 0.321709 -0.054996 -0.367427 0.082688 0.389214 -0.009554
em 0.081749 -0.282021 0.338895 -0.128627 0.281468 0.118783 0.177080 -0.160843 -0.267082 -0.374875 0.135857 -0.241333 0.012975 -0.076770 -0.291969 -0.266471 0.082971 0.320936 -0.189317 -0.194170 -0.224886 -0.232374 0.210488 -0.091307 -0.359629 -0.214863 0.098591 -0.031448 0.582638 -0.450467 0.165852 -0.021149 -0.344533 0.283844 0.227144 -0.129902 0.158351 0.201232 0.029103 0.041141 -0.062593 -0.289339 -0.022280 -0.309993 -0.066073 0.171223 0.038294 0.008338 0.272238 -0.074470
para -0.085260 -0.158111 0.125492 -0.207175 0.731884 -0.046324 -0.171029 -0.170499 -0.095130 -0.218084 -0.184533 0.147210 0.063857 -0.366937 -0.025112 -0.098526 0.115198 0.023777 0.249593 -0.187551 0.080868 -0.115075 0.122703 -0.334469 -0.092986 -0.221379 -0.411533 -0.341871 0.003604 0.118810 -0.162347 -0.061529 -0.286985 0.180887 0.342710 -0.129130 0.116578 0.025672 0.267852 0.034360 -0.025959 0.133450 -0.065477 -0.046071 0.167181 -0.168937 -0.084422 0.081404 -0.170521 0.220934
um 0.088076 0.220544 0.040795 -0.124004 -0.257099 0.004867 -0.025072 0.146757 -0.306084 0.106223 0.323979 -0.007102 0.178366 0.394929 0.515488 0.408173 -0.285979 0.088425 0.077427 -0.052761 0.300583 -0.301011 -0.418740 -0.034562 -0.395222 0.162463 0.196100 0.148299 -0.023740 -0.425291 -0.412085 -0.178068 -0.342229 -0.036799 0.012139 -0.423378 -0.170872 0.057832 -0.030956 -0.428565 0.258026 0.210130 -0.321200 0.027419 -0.155718 0.030684 0.055223 0.140399 -0.259473 0.284381
no -0.062048 0.059512 -0.187894 -0.035545 0.050998 -0.057654 0.039774 -0.126014 -0.526980 -0.198801 0.314363 -0.374177 0.262363 -0.210147 0.469101 -0.487505 0.039738 0.130326 0.039558 0.386263 -0.045694 -0.783691 -0.238457 -0.114774 -0.259781 -0.113541 0.082948 0.169485 0.232931 0.001656 -0.165159 -0.221504 -0.750870 0.128789 0.085795 0.112322 -0.268870 -0.033134 0.174704 -0.107302 0.137274 -0.061640 -0.242108 -0.161308 -0.301606 0.443265 0.222916 0.423649 0.135583 0.073019
com -0.065249 -0.122544 0.030030 0.023077 0.075428 -0.082920 -0.017239 0.085236 0.374676 -0.271635 -0.476205 0.014594 -0.150224 -0.264273 -0.022114 -0.141898 -0.064638 0.326885 0.195764 -0.144526 0.030553 -0.409637 0.113621 -0.430794 -0.032124 -0.266740 -0.258245 -0.107135 0.376194 0.365848 0.107593 0.032143 -0.376593 -0.217409 0.391958 0.140435 0.104735 0.113555 0.002852 -0.294927 0.113592 -0.391156 0.168690 -0.063768 0.134103 0.110688 -0.228664 0.076415 -0.208288 0.041073
é -0.065450 -0.228327 -0.149598 -0.014403 0.114869 -0.123529 -0.094418 0.230620 -0.048535 -0.178864 -0.073593 0.106495 0.129791 -0.330184 -0.119198 0.049998 -0.094839 -0.082102 0.034319 -0.388252 0.318008 -0.309429 -0.001646 -0.097455 0.032855 -0.347824 -0.312902 -0.286941 0.149499 -0.048851 0.416922 -0.393852 0.092589 -0.207971 0.509083 0.618900 -0.403689 -0.162125 -0.087618 -0.070335 -0.388525 -0.017141 0.500735 -0.254045 0.130994 0.298622 0.531058 -0.208166 0.127675 0.250951
uma -0.042388 0.031497 -0.110901 -0.496748 0.008992 0.012441 -0.015493 -0.149761 -0.100223 -0.130819 0.063389 0.057534 0.009147 0.349372 0.641588 0.412683 -0.343677 -0.166657 0.335223 -0.205414 0.320538 -0.232312 0.152831 0.312789 -0.372433 0.080100 0.511105 0.099521 -0.313852 -0.043386 0.205358 0.185084 0.131773 0.324071 -0.203883 -0.300540 -0.020275 0.311155 -0.098329 -0.024213 0.220909 -0.431993 -0.074542 -0.228722 0.380583 0.088598 -0.177141 -0.208094 0.004861 -0.233122
os 0.233334 -0.448768 0.240955 -0.214607 -0.135594 -0.401528 -0.318371 0.158289 -0.421105 0.029103 -0.040473 -0.409095 0.312088 -0.214898 0.153414 0.025138 -0.219373 -0.003716 0.066680 0.376924 -0.253115 0.251494 0.256846 -0.271620 -0.569914 0.257725 0.354420 0.271262 0.091457 -0.017490 -0.294731 0.508116 0.352884 -0.299816 0.101713 0.154255 0.112627 -0.000976 -0.192963 0.123180 0.343873 0.250010 -0.049843 -0.136124 0.018869 0.212860 -0.124768 -0.644182 0.113464 0.134007
não 0.300569 -0.054351 -0.104633 -0.157417 -0.161750 0.104651 -0.143639 0.018582 0.108906 -0.158135 -0.035508 0.275569 -0.145975 -0.001963 -0.032817 -0.103728 -0.122594 0.028581 0.043333 0.003367 -0.293665 -0.227642 0.208549 0.101522 -0.039888 0.219050 0.262031 0.012209 -0.091082 0.001070 -0.025377 0.058611 -0.355987 0.159552 0.011746 -0.230798 0.173269 -0.009367 0.233237 0.001240 0.230833 0.057190 0.033220 0.132705 0.116080 0.127407 0.117637 -0.001934 -0.264328 0.073344
na -0.156428 -0.313491 -0.104769 -0.447783 0.176969 0.138383 0.128991 -0.102423 -0.067962 -0.437818 0.340949 -0.147565 -0.254349 0.070814 0.480204 -0.239388 -0.215514 0.113550 0.490541 -0.216098 0.131176 -0.255576 0.262707 -0.058030 -0.197750 -0.216975 0.275422 -0.008655 0.048081 0.317532 -0.000825 0.077021 -0.235807 0.383864 0.234734 -0.183905 -0.185164 -0.155396 0.091323 0.388850 -0.288789 -0.499835 -0.051344 0.065184 0.239000 0.601861 -0.165722 -0.013351 0.474214 -0.091525
00 -0.128555 0.245209 -0.519141 0.260806 0.007313 0.234547 0.190878 0.048001 0.337483 -0.212237 0.707737 0.210036 -0.116378 -0.247274 -0.165532 0.142656 -0.564924 -0.140970 0.308052 0.389906 -0.239200 0.243929 -0.059762 -0.366593 -0.197906 -0.064022 0.581747 -0.026558 0.321549 0.326851 0.026498 -0.123230 0.121960 -0.064758 -0.524731 0.147918 -0.095621 0.229169 0.099614 0.056064 -0.223355 0.110470 -0.474768 -0.087013 -0.227831 0.043723 0.248368 -0.275681 -0.621015 0.041371
0000 -0.002774 0.221471 -0.861332 0.212763 0.242348 0.215838 -0.042243 0.300740 0.279017 0.228206 -0.126780 0.272812 -0.154572 0.234442 -0.054900 0.083662 -0.197862 -0.191974 0.023538 0.384897 0.162664 0.212786 -0.442928 -0.164640 -0.239566 0.008242 0.618468 0.373627 0.059609 0.373495 0.186486 -0.008639 0.180327 -0.354111 -0.192737 0.089761 0.192182 -0.148195 -0.008000 0.135374 0.031965 -0.076891 -0.340964 0.152334 -0.243334 -0.443988 0.304584 0.046098 -0.170286 0.167286
por 0.077515 -0.077459 0.138891 -0.137927 0.247263 0.085995 0.006109 -0.005608 -0.061826 -0.396575 -0.403187 -0.274650 0.163357 -0.083159 -0.111429 0.077094 0.136144 0.419072 -0.104459 -0.169148 0.083127 -0.405021 0.650091 -0.214955 -0.181671 0.215722 -0.122810 -0.175079 -0.196622 0.034726 0.026674 -0.213012 -0.155643 0.531451 0.212828 0.441668 0.001340 -0.301027 -0.267559 0.184813 -0.133511 -0.243816 -0.360432 -0.294024 -0.331567 0.122954 0.083098 -0.133395 -0.460043 0.295404
) 0.071218 -0.139080 0.607437 0.093405 -0.057628 0.412762 0.224626 0.033407 0.232930 -0.344547 0.469245 -0.437598 0.028682 -0.345272 0.307556 -0.062102 -0.042957 0.586257 -0.323333 -0.120103 -0.264635 0.150011 -0.386097 0.030529 0.033439 0.248302 0.128572 0.287756 -0.247564 -0.026454 0.354873 0.234878 -0.016196 0.267278 -0.048942 0.090792 0.263931 0.273385 0.314498 -0.049631 0.116259 -0.108361 -0.079513 -0.021908 0.054038 -0.191352 -0.020955 0.067337 0.117118 0.205613
( 0.327619 -0.096670 -0.100758 -0.514394 0.096382 -0.036328 -0.296849 -0.106016 -0.619491 0.320383 -0.049398 0.328019 0.105123 0.233490 -0.270220 -0.107994 -0.112835 -0.408104 0.421252 -0.245228 0.471436 -0.405765 0.223776 -0.316420 -0.005668 0.047204 -0.276811 -0.213785 0.509498 -0.127459 0.200344 -0.010899 0.007754 -0.180410 0.103767 0.095031 -0.326786 0.037725 -0.272793 -0.209720 -0.326641 -0.062681 0.262676 -0.024053 -0.178156 0.228832 0.101784 -0.182222 0.222291 0.131036
as 0.038739 0.181742 0.093731 -0.312766 -0.466724 0.168573 -0.130917 0.079289 -0.589871 0.010135 0.393327 0.091192 -0.318764 -0.395544 -0.424053 0.674215 0.305398 -0.205322 0.069466 0.083100 -0.048227 -0.121859 0.336930 0.116085 0.049552 -0.315463 0.473193 0.077675 -0.134882 -0.218071 0.034419 0.556574 -0.201438 -0.327680 0.178567 0.393595 0.414930 0.021312 0.010186 -0.095246 -0.068708 0.080036 -0.628416 -0.315892 0.034679 0.288981 -0.378002 0.263213 0.322439 0.034764
se 0.082794 0.021154 -0.521354 0.262356 0.070217 -0.024263 -0.139293 0.099014 -0.568597 0.071035 -0.138067 0.209043 0.439303 0.127923 0.424782 -0.028159 0.738848 -0.324855 0.399652 -0.165608 -0.193604 -0.093896 0.183320 0.160619 -0.036069 -0.091991 0.280650 0.135318 -0.120239 -0.190285 -0.081630 -0.026402 0.159700 -0.354367 0.011413 0.148466 0.556896 0.519726 0.010438 0.404017 -0.007650 0.255658 0.031970 0.070266 0.058718 0.135990 -0.049914 -0.302945 -0.329250 0.015178
dos -0.033470 -0.682002 0.514412 -0.011726 -0.244858 -0.534166 -0.460884 0.116156 0.004304 -0.169443 -0.162780 -0.260467 0.399970 -0.103071 0.075108 -0.497069 -0.212939 0.218324 0.296876 0.173775 -0.111072 0.115100 0.423076 -0.487847 -0.331549 -0.228814 0.019269 0.070381 0.151417 0.002093 0.058195 0.192763 0.401978 0.164418 -0.019460 0.429274 0.075100 -0.175564 -0.101037 0.029975 0.511594 -0.021814 0.052255 0.026742 0.048410 -0.227359 -0.360454 -0.369744 -0.077143 0.171056
foi -0.184392 -0.240550 -0.428789 -0.174485 0.005007 -0.043694 0.090040 0.245083 -0.127492 -0.198673 -0.155173 -0.069648 -0.011463 -0.409595 0.025426 0.305773 0.145605 -0.019867 -0.090729 -0.374180 0.336041 -0.059483 0.005088 -0.264029 -0.193886 -0.449818 -0.004605 -0.122435 0.207298 -0.420685 0.168194 -0.564089 0.178030 -0.328141 0.487268 0.594545 -0.488280 -0.183334 -0.075833 0.113791 -0.520317 -0.132685 0.464576 -0.222372 0.090812 -0.005260 0.694576 -0.241717 0.125385 0.108856
como 0.028035 -0.445771 -0.133514 0.042730 0.068760 0.000382 -0.149517 -0.076288 0.098199 -0.083995 0.077119 -0.098095 0.074875 -0.156274 -0.154723 0.165770 0.166198 0.341564 0.119243 0.030960 0.184455 -0.184305 0.212631 -0.065644 -0.034257 -0.123968 -0.020003 0.000369 0.111110 0.129433 0.125769 -0.103521 -0.113527 0.183872 0.058812 0.124509 -0.168257 -0.349808 0.195784 -0.299049 0.123131 -0.409928 0.112348 -0.130085 0.182460 -0.028981 0.176380 -0.068504 -0.376867 0.221447
ao 0.321192 0.090788 -0.108553 0.163609 0.212144 0.044720 -0.189432 -0.189966 -0.135197 -0.083628 -0.370368 -0.455620 0.170350 -0.300308 -0.156288 0.004415 -0.329571 -0.098281 0.226600 0.322190 0.158398 -0.655883 -0.321283 -0.287087 -0.650312 -0.234847 -0.144248 -0.023238 -0.213850 -0.385564 -0.548652 -0.139212 -0.343515 0.121864 -0.063779 -0.182272 0.108836 -0.044380 0.050346 -0.240061 -0.102744 -0.162574 -0.045901 0.165877 -0.146665 0.399095 -0.018722 0.680541 -0.009305 0.419628
mais -0.143113 0.071954 0.148128 -0.005434 0.041762 0.070395 -0.148216 0.034773 0.259962 0.237599 0.034915 0.062892 0.375667 0.012172 -0.106311 0.113404 -0.428167 -0.046246 -0.060714 -0.166274 0.102152 -0.017353 0.265648 0.343636 -0.066358 -0.194766 0.265555 0.020669 0.131113 -0.312905 0.027859 -0.157384 -0.286248 0.008483 0.106522 -0.045821 0.164170 -0.294921 0.197964 -0.073407 -0.180193 0.076906 0.332224 -0.118087 0.313797 0.225186 -0.313056 -0.164100 -0.445254 -0.088031
? -0.031278 -0.031370 0.004264 -0.254988 -0.055286 0.102584 -0.236364 -0.178209 -0.207969 -0.214067 0.148585 0.120866 0.159140 -0.173181 0.263002 0.017115 -0.153514 -0.006723 0.202065 -0.237794 0.124906 0.079955 0.079636 -0.019998 0.114646 0.246555 -0.085132 -0.341211 0.167537 -0.131057 -0.075063 -0.052268 -0.009713 -0.170415 -0.037245 0.091059 0.027807 0.176674 -0.190476 -0.289908 0.034909 -0.135280 0.412633 -0.122744 -0.259796 0.373136 -0.288322 0.156507 -0.141859 0.043272
0 -0.116105 0.129574 -0.419238 0.118686 -0.092984 0.074856 0.382224 0.040450 0.167181 0.100599 0.451698 0.146837 -0.171405 -0.214131 -0.025131 -0.047615 -0.469266 -0.237791 0.068817 0.177029 0.013652 -0.068790 -0.274818 -0.349261 -0.021212 -0.304876 0.182661 -0.011160 0.354577 0.333047 0.200531 0.159959 0.070179 -0.178136 -0.489949 0.039620 0.069680 0.404408 0.216442 0.111384 -0.169620 0.128346 -0.304076 -0.034437 -0.103570 -0.101560 0.171968 -0.469649 -0.471517 0.179950
das -0.250192 0.132670 0.384117 -0.082320 -0.525381 -0.059884 -0.233180 0.124244 -0.133360 -0.287171 0.380203 0.167224 -0.265792 -0.237378 -0.584017 0.069477 0.405162 0.202126 0.272674 -0.184767 0.116417 -0.232474 0.437505 -0.097439 0.268879 -0.703545 0.092774 -0.028297 -0.200762 -0.164828 0.231582 0.249335 -0.265817 -0.089122 0.217693 0.607590 0.334801 -0.114469 0.152670 -0.334104 0.118391 0.056448 -0.522991 0.083144 -0.128765 -0.088147 -0.664887 0.408045 0.145601 0.275002
- 0.108276 -0.080571 0.035971 0.129558 -0.271685 0.227173 -0.061570 -0.005686 -0.488015 -0.181793 0.023642 0.008574 -0.205770 -0.216411 0.122568 -0.394464 -0.145418 0.196092 0.141878 -0.333144 0.397095 0.187579 -0.072018 -0.178876 -0.043668 0.277114 0.232003 -0.331612 0.084368 -0.194341 0.355246 0.066864 -0.093156 -0.090971 -0.158804 0.059012 -0.141510 0.252308 0.100523 -0.141552 0.060784 0.171381 0.200795 0.164556 0.013904 0.088672 -0.122990 0.136495 0.094056 0.181488
mas -0.293199 -0.332568 -0.225121 0.312746 0.314494 -0.193986 0.083211 -0.028221 -0.241724 0.040363 0.301096 0.033228 -0.046126 -0.063075 -0.256844 -0.027532 0.132726 0.270469 -0.133646 -0.112622 -0.163098 -0.157004 0.049939 0.106401 -0.034371 0.004844 -0.150584 0.243581 -0.105814 -0.057747 -0.005505 0.003112 -0.128436 -0.459718 -0.193389 -0.195823 -0.017845 -0.171267 -0.292881 -0.000428 0.156706 -0.429018 -0.197377 0.042907 0.351063 0.043687 -0.069318 -0.082679 -0.256669 -0.156420
sua -0.102091 -0.083437 -0.457454 -0.150067 -0.115443 0.014560 0.125399 -0.279959 0.108571 -0.117607 -0.194051 -0.095348 0.143440 0.295726 0.343605 0.113641 0.109908 -0.296974 0.504147 0.014214 0.106625 -0.093798 -0.043416 0.042373 -0.272769 -0.315358 0.355830 -0.013073 -0.309549 0.228845 -0.001131 0.249017 0.018651 0.081659 -0.198276 0.121564 0.294524 0.318309 -0.130478 0.064735 0.409737 -0.537405 0.129728 0.187718 0.500492 -0.447658 -0.076266 -0.059196 0.113850 -0.318305
ou -0.053340 -0.281541 0.150273 -0.007554 0.157001 -0.137728 -0.165041 -0.071080 -0.215172 0.127196 0.252397 0.091165 -0.029909 -0.079903 -0.064633 0.061066 -0.077903 0.159067 0.089403 -0.074307 0.048238 -0.277496 -0.034982 -0.264482 -0.010092 -0.009480 -0.181975 -0.061933 -0.082348 -0.000034 0.227275 0.131725 0.052639 -0.177056 -0.009523 0.030481 -0.014973 -0.005623 -0.237628 -0.135856 0.207509 -0.248042 -0.258171 0.130302 0.213348 0.153009 0.119859 -0.025574 0.010949 0.137036
ser 0.024447 -0.048241 -0.047325 -0.057393 -0.211140 -0.523454 0.759897 0.498266 0.216200 0.210279 -0.078077 0.081923 -0.272542 -0.085002 -0.002332 -0.188050 0.155537 -0.150368 0.197869 0.065773 -0.348634 -0.269011 0.514577 0.352403 -0.091918 -0.362283 0.497545 0.343077 0.148649 -0.622569 0.225095 -0.778332 0.100171 -0.774581 0.017155 0.356103 -0.425085 -0.027016 0.042599 0.216301 -0.302352 -0.398641 0.612700 0.452375 -0.084977 0.115132 0.507892 0.081357 -0.380900 0.484416
seu 0.194649 -0.322663 -0.327061 0.113075 -0.199857 -0.166305 -0.047036 -0.056265 -0.032854 0.017431 0.006841 0.016104 0.175410 0.195352 0.496671 0.268838 0.144790 0.003171 0.244903 0.075514 0.204638 -0.005743 -0.353010 -0.286760 0.066516 -0.391280 0.096912 0.383397 -0.055921 -0.215276 -0.543206 -0.204559 -0.121739 -0.161362 0.277484 -0.110426 0.263651 0.032429 -0.016566 -0.336405 0.087802 0.197832 -0.041239 0.109172 -0.083433 -0.317415 0.000645 0.206141 0.041683 0.228733
000 0.129920 0.312369 -0.153010 0.175073 -0.161951 -0.146787 -0.091882 0.109890 0.338150 -0.193327 0.571724 0.156537 0.061665 -0.276920 -0.112384 0.193001 -0.275112 -0.442588 0.373302 0.239790 -0.277899 0.233843 -0.367785 -0.549363 -0.057989 -0.205887 0.434446 -0.211796 -0.132665 0.461358 0.030964 0.026000 0.057237 -0.151927 -0.365442 0.071574 -0.049505 0.099972 0.259956 0.197862 -0.175885 -0.164020 -0.630919 -0.113804 0.046009 0.251859 0.265847 -0.365441 -0.583800 0.117523
: 0.020563 -0.148070 0.151074 -0.199822 -0.068723 0.009442 -0.093961 -0.214371 -0.270559 -0.072643 -0.014512 0.062566 -0.028214 -0.208081 0.085428 -0.167559 0.017547 0.141858 0.229107 -0.059959 0.174158 -0.116106 0.065248 -0.156854 0.182055 0.150198 -0.110340 -0.168641 0.100094 -0.037740 0.083011 0.140897 -0.128132 -0.068930 -0.096741 0.148001 -0.113566 0.023363 -0.003977 -0.333135 0.065902 -0.194370 0.228222 -0.019375 0.067175 0.008587 -0.094212 -0.049043 0.037378 0.224793
são -0.687424 0.032435 0.160280 -0.345231 -0.113391 -0.431836 -0.530824 0.553937 0.058404 0.417741 -0.010022 -0.680197 0.100262 0.199115 -0.158889 -0.535273 0.215846 0.035370 0.154848 -0.158063 0.047477 -0.112121 0.000496 -0.166502 -0.297447 -0.344551 -0.087352 -0.160028 -0.110692 0.468729 0.578022 -0.395353 0.680672 -0.307720 0.071430 0.018019 0.191525 0.229085 0.177886 -0.373542 -0.263732 -0.228165 -0.071647 -0.014374 -0.085562 0.367577 0.105392 0.476794 -0.416008 0.151960
« -0.110655 -0.060087 -0.224371 0.394862 0.184889 -0.072487 -0.451430 0.016740 -0.072564 -0.235350 0.361742 0.260471 0.140416 0.276839 -0.004523 -0.124565 0.050740 0.170083 -0.166443 -0.162240 0.298110 -0.019377 -0.181126 -0.041503 0.418212 0.065202 -0.143621 -0.082176 0.163544 -0.010459 0.137085 -0.236558 -0.006126 -0.314662 -0.341460 0.220992 0.244598 0.346982 -0.058382 -0.172355 -0.255164 0.016476 0.724653 -0.114656 0.009674 0.412917 -0.497209 0.234292 -0.302394 -0.213439
pelo 0.252203 0.073717 -0.040652 -0.176907 -0.143088 0.111942 0.112938 0.088957 -0.197014 -0.233726 -0.141550 -0.482012 0.347992 -0.178019 0.296462 0.162946 0.067984 0.209039 0.007660 -0.008574 -0.042682 -0.829051 0.241914 -0.354455 -0.435314 0.113326 -0.109108 -0.022631 -0.104520 -0.323116 -0.280898 -0.403179 -0.248089 0.189654 0.275515 0.098947 -0.424587 -0.214689 -0.033870 -0.249956 -0.125474 -0.359280 -0.389903 0.048137 -0.269114 0.048490 0.286265 0.161837 -0.261915 0.452290
» 0.070035 -0.162736 0.446192 0.055884 -0.197182 0.271009 0.338332 -0.220701 -0.338521 -0.218263 -0.365342 -0.153342 0.057707 -0.253469 0.048625 0.051687 -0.204203 -0.226793 -0.055858 0.285471 0.161462 0.101071 0.315987 0.309892 -0.262603 0.171957 0.278445 -0.104917 -0.117733 -0.174763 0.014190 0.182510 -0.213546 0.198539 0.054978 -0.074245 -0.297277 -0.356757 -0.314231 0.320558 -0.020477 0.156481 -0.646365 0.632710 0.193913 -0.377499 0.241933 0.030025 -0.003749 0.125917
eu -0.085504 -0.300299 0.138044 -0.150789 -0.152219 0.295862 -0.133159 -0.022501 0.152479 0.028982 -0.058315 -0.143686 -0.173600 0.032772 -0.183282 -0.201211 0.168748 -0.259801 0.048326 -0.286810 -0.521940 -0.045035 -0.002276 0.039600 0.034774 0.174210 0.098716 0.287151 -0.544195 -0.195808 0.080907 -0.040070 -0.471237 -0.044105 -0.075511 -0.162634 0.364327 -0.263394 -0.186582 -0.057622 0.014133 0.186213 0.211311 0.147915 -0.199071 0.335698 -0.021067 0.133091 -0.511020 0.099336
ele 0.089023 -0.020019 -0.195208 -0.050160 -0.234535 0.202084 0.012720 0.118643 -0.123611 0.023894 0.013085 -0.107640 -0.111859 0.052787 -0.088312 0.071558 0.085700 -0.033137 0.071436 -0.039678 -0.438573 0.023480 -0.106947 0.298069 -0.051424 0.016662 0.324140 0.280534 -0.068026 -0.115081 -0.297536 0.028276 -0.122292 -0.040232 -0.043638 -0.191957 0.485802 0.049254 0.094391 0.267053 0.355962 -0.142297 0.013546 0.044267 0.127486 0.021231 0.045298 0.022200 -0.176665 0.185035
está -0.304969 0.052375 -0.403879 -0.531001 -0.037343 -0.037889 0.218895 0.079343 0.136941 -0.126812 -0.334736 0.065905 0.430595 -0.760963 0.095642 -0.132610 -0.044430 -0.026698 -0.215442 -0.315325 0.414889 0.090519 -0.243528 0.187560 -0.288615 -0.173527 -0.073594 -0.074948 -0.258067 -0.229613 0.111031 0.016354 0.475016 -0.073122 0.434921 0.376934 -0.295166 0.099994 0.148083 -0.211391 -0.300831 0.270457 -0.000893 0.090413 0.089990 -0.079031 0.631698 0.118531 0.008254 -0.070984
pela 0.117383 -0.174514 -0.087365 -0.423287 0.170687 0.290988 0.139275 -0.111857 0.087285 -0.572573 -0.129198 -0.325616 -0.179751 -0.004941 0.482552 0.090225 -0.079658 0.217667 0.225138 -0.368175 0.188835 -0.214862 0.664450 -0.186339 -0.334927 0.020250 0.259409 -0.004472 -0.467436 0.057301 0.006717 -0.089227 -0.011479 0.466686 0.305089 0.082051 -0.361563 -0.151571 -0.079098 0.188371 -0.351329 -0.661186 -0.119498 0.058634 -0.018546 0.391819 -0.010159 0.004889 0.074468 0.300862
também 0.192513 0.035345 -0.109473 -0.047363 -0.050812 0.065693 -0.166986 -0.003399 0.001060 -0.129108 -0.034133 0.146484 -0.118674 0.040401 0.026023 0.027430 0.071107 0.189473 0.016179 0.000687 -0.097360 -0.013959 0.082995 0.148425 -0.002532 0.048629 0.196283 0.204005 0.047996 0.031804 -0.098535 0.015538 -0.197326 0.077698 0.067494 -0.100461 0.082464 -0.022476 0.147423 -0.054322 0.158350 -0.133681 0.110145 0.017911 0.115176 -0.005918 -0.009136 -0.150534 -0.205337 0.227436
nos -0.122146 -0.783183 0.293835 -0.185935 -0.112994 -0.301499 -0.244472 0.204263 -0.214541 -0.154856 -0.046753 -0.363783 0.365590 -0.196584 0.182190 -0.353909 -0.335476 0.239712 0.186631 0.260112 -0.375612 0.222263 0.377710 -0.215821 -0.766329 -0.173616 0.114925 0.026408 0.363060 -0.073928 0.030252 0.327767 -0.147753 0.066889 0.183940 0.091740 0.036969 -0.121673 0.122555 0.190799 0.106562 0.039211 -0.049306 -0.133612 -0.297436 0.327021 -0.237796 -0.562321 -0.184157 0.088244
sobre -0.248104 -0.135613 0.093759 -0.144647 0.240597 -0.246098 0.019641 -0.194593 -0.110004 -0.304099 -0.321844 0.173741 -0.144968 -0.089578 -0.095892 -0.265097 -0.044848 0.225603 0.369337 -0.097835 -0.013808 -0.190196 0.271880 -0.273666 0.216978 -0.242864 -0.284933 -0.118630 0.213357 0.269955 0.037740 0.046641 -0.255260 0.005858 0.269666 0.193344 -0.230641 -0.012111 0.216728 -0.330970 -0.084458 -0.013185 0.152167 0.124500 0.165616 -0.135335 -0.083282 0.174107 -0.276458 -0.027791
você 0.125751 -0.251944 0.097538 0.014336 -0.035418 0.155868 0.105062 0.062347 0.075938 0.035499 -0.032578 0.050470 -0.325548 -0.176571 -0.077553 -0.079369 0.002199 -0.269332 -0.006584 -0.148619 -0.438952 -0.240116 -0.152892 0.337194 -0.034848 0.121951 0.425149 0.282661 -0.360632 -0.087706 -0.243909 0.209452 -0.155908 -0.211357 -0.104101 -0.424902 0.360696 0.085983 -0.030674 0.045233 0.281898 0.158113 0.182064 0.042408 -0.036685 0.325690 0.029657 0.154643 -0.177785 0.272218
entre 0.024821 0.070304 0.244884 0.049236 0.238729 0.076035 0.154918 0.005054 0.272616 -0.524732 -0.145294 -0.359013 0.181320 -0.006311 -0.048487 -0.414686 0.203481 0.662426 -0.115233 -0.321579 0.056220 -0.189846 0.297861 -0.383449 0.026188 -0.133935 -0.189463 -0.088086 0.595754 0.162893 0.247774 0.010742 -0.292956 0.218805 0.285338 -0.159736 0.334790 0.242435 0.430378 -0.263162 -0.261651 -0.257248 0.388434 -0.093109 0.012658 0.127021 -0.327619 0.229113 -0.350259 -0.109253
tem -0.146111 -0.052799 -0.041820 -0.000257 -0.238882 -0.023199 0.380877 0.223510 -0.262486 -0.440465 -0.331009 -0.164048 0.359448 -0.530370 0.094875 -0.162003 -0.263916 0.092483 -0.105663 -0.550035 0.290498 -0.176022 -0.019621 -0.308870 -0.087964 -0.357518 -0.357042 -0.417706 -0.039226 0.123529 0.228297 0.229976 0.140173 -0.237880 0.579393 0.225688 -0.299774 -0.122367 -0.568028 0.087412 -0.281677 0.022908 0.164715 -0.103757 -0.022567 -0.049641 0.361813 0.271664 0.121541 -0.204347
; 0.187494 -0.026620 -0.003310 -0.277606 -0.122141 0.039167 -0.054872 -0.141916 -0.249805 0.089389 0.074455 0.019306 0.087537 -0.006182 -0.097448 -0.154498 0.031365 0.140115 0.186570 -0.179922 0.312981 -0.035572 0.012481 -0.173824 0.073630 0.145431 -0.195769 -0.199934 0.165307 -0.015610 0.138192 0.087492 0.006458 0.033199 -0.061948 0.163389 -0.042817 0.144644 -0.063404 -0.252912 -0.196462 -0.078737 0.278587 -0.042858 -0.069780 0.087350 -0.057932 -0.047242 0.028738 0.151116
! -0.162961 -0.299971 0.085019 -0.321432 -0.068705 0.116328 -0.174330 -0.297409 -0.216877 -0.167587 0.026021 0.007453 0.129319 -0.281073 0.171442 -0.036207 -0.031955 -0.037599 0.148552 -0.223123 0.289291 -0.186888 -0.054905 0.070259 0.248536 0.213297 -0.181019 -0.201504 0.122644 -0.145845 -0.127424 -0.016369 -0.006556 -0.164641 -0.363378 0.145343 -0.157812 0.246682 -0.326185 -0.373019 -0.045714 -0.256168 0.190854 0.026702 -0.163655 0.473294 -0.315061 -0.176625 -0.272125 0.089553
já 0.023988 0.040458 -0.261350 -0.019645 -0.035106 0.052134 -0.151560 0.078982 -0.000662 -0.019415 0.002444 0.023825 -0.056451 0.025884 -0.142088 -0.155089 0.038254 0.073609 0.004885 -0.098434 -0.261583 -0.075268 0.154060 0.003392 -0.015588 0.022206 0.260776 0.147548 -0.053438 -0.191600 -0.088600 -0.076041 -0.230708 0.000436 0.058974 -0.152157 0.024045 -0.069987 -0.012001 0.065299 0.072429 -0.050984 0.065188 -0.017885 0.217023 0.138112 -0.037334 -0.108017 -0.184372 0.081643
isso -0.041522 -0.393149 -0.090409 0.023479 -0.396719 0.040658 0.222928 -0.003667 -0.074582 0.068275 0.341596 0.097419 -0.133794 -0.053394 0.001661 0.154880 -0.125351 -0.039495 -0.198735 0.042832 -0.194767 -0.060107 -0.412889 0.505379 -0.157345 -0.029288 0.233706 0.507347 -0.159197 -0.136352 -0.071849 0.283404 -0.002421 -0.321673 -0.235789 -0.543514 0.557400 0.086663 0.295670 0.225752 0.352378 0.051704 0.068960 0.336617 0.217051 -0.043266 0.332458 -0.019097 0.028466 -0.196752
anos -0.187733 0.433166 0.370117 -0.395508 0.240303 0.623958 0.587249 -0.172777 0.017036 0.665049 -0.436156 -0.334227 -0.026084 0.748945 0.158761 -0.201172 0.618041 0.406286 -0.276138 -0.144424 0.310589 -0.074506 -0.458070 -0.203649 0.569226 0.327204 0.132850 0.142223 -0.458889 -0.483717 0.162890 -0.698496 -0.691667 -0.501489 -0.041704 -0.092623 0.420390 -0.616533 0.007826 0.403432 0.462332 -0.030758 0.178380 -0.244264 0.643604 -0.176888 0.046949 0.085842 0.715099 -0.679973
ainda 0.031134 -0.047539 -0.225125 -0.030215 -0.189670 0.037744 -0.027241 0.018454 -0.158840 -0.168724 0.050857 0.012218 -0.083798 0.030901 -0.054164 -0.099598 0.139773 0.077194 0.079191 0.020130 -0.183124 -0.114447 0.002130 0.051888 0.000493 0.071305 -0.001287 0.067627 -0.194162 -0.104926 -0.049659 -0.016104 -0.070357 -0.088268 0.092261 -0.215448 0.144379 -0.059875 0.103650 0.063265 0.105417 -0.039517 0.017119 0.000086 0.183356 0.023635 0.080545 -0.177168 -0.176529 -0.010338
muito -0.141874 -0.146672 0.140262 -0.038799 -0.115709 0.113766 0.132226 -0.116222 0.179713 -0.047221 0.164790 0.135147 0.199789 -0.010503 0.016414 0.006807 -0.221366 -0.013031 0.005297 0.116713 -0.093432 -0.160325 0.012331 0.383763 -0.297241 0.123547 -0.013163 0.172841 -0.210632 -0.359806 -0.103162 -0.083758 -0.278309 -0.045474 0.060225 -0.155257 0.315830 -0.339199 0.020860 -0.135113 0.072099 0.006200 0.101088 0.072812 0.189659 0.107680 -0.034537 -0.148988 -0.311511 -0.030883
aos 0.264051 -0.494295 0.305086 -0.094507 0.081236 -0.311716 -0.402406 0.014102 0.065325 -0.108949 -0.732458 -0.430399 0.074281 -0.269891 -0.157788 -0.242959 -0.477953 0.237963 0.157766 0.129777 -0.139532 0.046555 0.362811 -0.533017 -0.865256 -0.101776 -0.000064 0.125260 -0.044845 -0.140890 -0.238686 0.246720 0.056531 -0.110207 -0.061541 0.053061 0.242153 -0.010108 -0.055335 0.023335 0.105416 -0.047746 -0.003821 0.040670 -0.188953 0.434723 -0.359025 -0.222269 -0.043108 0.203249
até -0.073999 -0.085966 -0.112640 -0.138040 0.311841 -0.128794 0.027145 0.040828 -0.010660 -0.160573 0.133627 0.004996 -0.058307 -0.177681 -0.052370 -0.407980 0.106560 -0.003606 -0.064285 -0.040298 -0.185320 -0.038210 0.010246 -0.198349 0.148624 0.021978 -0.025595 0.002216 0.171184 -0.181659 0.118007 -0.169176 -0.357927 0.128044 0.159106 0.066644 0.175897 0.205547 0.112184 0.213261 -0.093652 0.064260 0.028339 -0.238910 -0.002627 0.110720 0.009281 0.029016 0.075843 -0.115178
/ 0.405005 -0.189668 0.350381 -0.268255 0.084578 0.142500 0.160782 -0.307129 -0.201117 0.221977 -0.384328 -0.164634 0.045069 -0.047017 -0.036139 -0.295769 0.123097 0.028390 0.030927 -0.313267 0.289636 -0.407867 -0.111796 -0.342845 0.161697 0.393624 -0.014533 -0.039715 -0.131139 -0.220673 0.297233 0.233310 -0.247881 0.003176 -0.174141 0.085718 -0.181554 0.204580 -0.073312 -0.223221 -0.401445 0.087369 0.190426 -0.105132 -0.103252 0.204209 -0.069152 -0.091883 0.252141 0.160175
quando 0.017463 -0.198905 -0.180989 0.054980 0.363524 -0.068915 -0.081468 -0.176033 0.005032 -0.013769 -0.031450 0.057061 -0.318794 -0.114701 -0.119502 -0.075177 0.168660 0.400614 0.083448 0.009709 -0.144665 0.021516 0.123133 -0.000343 0.046268 0.202854 0.036362 0.041638 0.190868 -0.090565 -0.086711 -0.073006 -0.501231 -0.077724 -0.083053 -0.106837 0.128548 -0.063929 -0.034813 -0.095226 0.255867 -0.496562 -0.034220 0.052586 0.161357 0.136262 -0.104933 -0.085322 -0.362079 0.082435
era 0.018881 -0.167368 -0.323143 -0.145799 -0.046815 -0.150764 -0.130103 0.272816 0.277121 -0.189638 -0.304326 -0.124994 0.215775 -0.225610 0.003244 0.193868 0.065984 -0.198212 0.076101 -0.492359 0.159028 -0.066767 -0.085766 -0.139524 -0.154295 -0.293420 -0.228983 -0.336851 -0.120050 -0.046132 0.256613 -0.461021 -0.114074 -0.320957 0.455142 0.508862 -0.335043 -0.201460 -0.093598 -0.114073 -0.278075 0.006427 0.210348 -0.262267 0.179177 0.273901 0.714020 -0.119835 0.151765 -0.120496
ter 0.045066 0.097632 0.085736 -0.022102 -0.638340 -0.192572 1.151400 0.119404 -0.207881 -0.269224 -0.367019 -0.108152 -0.180334 -0.684499 0.282010 -0.071580 -0.097147 0.084522 0.192647 -0.049744 0.048954 0.127740 0.408575 0.085848 -0.014470 -0.169296 0.162031 -0.191830 0.157968 -0.440238 0.081723 -0.017964 -0.022148 -0.811312 0.129347 0.196457 -0.364484 -0.230456 -0.584588 0.403928 -0.094500 -0.565327 0.341706 0.660454 -0.154963 -0.360719 0.462789 0.377481 -0.193403 0.094889
bem -0.181073 -0.024013 0.212312 0.124759 -0.113054 -0.005921 0.058927 0.221156 0.090469 -0.349167 -0.045265 0.234283 -0.366984 0.084374 0.024099 -0.115975 0.030912 -0.038015 -0.128144 0.078530 -0.178392 -0.278579 0.004360 0.288329 -0.244325 0.062226 -0.100349 0.144863 -0.124339 0.113375 -0.055420 -0.110664 -0.128282 -0.266256 0.353579 -0.202236 0.237196 -0.224480 -0.163907 0.199266 -0.023275 0.069410 0.073353 -0.021930 -0.009381 0.235506 0.113196 -0.150063 -0.146995 0.116942
foram -0.818448 -0.084616 0.147124 -0.604804 -0.154249 -0.250612 -0.255387 0.653269 -0.131903 0.270308 0.057475 -0.692719 0.349929 0.196245 -0.191726 -0.398570 0.297985 0.001364 -0.117284 -0.412244 -0.049274 0.075745 0.257858 -0.435057 -0.136441 -0.450279 0.003320 -0.120028 -0.007908 -0.017034 0.374448 -0.477368 0.652576 -0.137571 0.192266 -0.023692 0.108204 0.165325 0.245784 -0.095844 -0.301374 -0.339131 -0.170444 0.110097 0.030554 0.304881 0.084139 0.267300 -0.417981 0.260422
mesmo -0.031703 -0.269800 -0.327205 0.013659 -0.110696 -0.319738 0.071554 -0.016858 0.038557 0.020564 -0.056923 -0.043030 -0.188941 0.281899 0.111516 -0.048979 0.131323 -0.037116 -0.291117 -0.098039 0.216661 0.342631 0.041821 -0.021211 0.258387 0.026313 0.247625 0.208178 0.012630 -0.142084 -0.067624 0.010392 -0.162979 0.171231 0.382603 -0.227084 0.244655 -0.165253 0.017928 -0.035234 -0.326136 0.305456 -0.206206 0.051090 -0.055967 -0.078283 0.061581 -0.048226 -0.404527 -0.121991
pode -0.339221 -0.385361 -0.082262 -0.282013 0.546565 0.295638 -0.698308 -0.055603 -0.254792 -0.237444 0.029766 -0.049259 0.512162 -0.480048 0.030680 0.422635 -0.282072 0.092683 -0.430676 -0.364126 0.548163 -0.318635 -0.519245 -0.517120 -0.124660 -0.010344 -0.822893 -0.753774 -0.438349 0.386029 0.065835 0.338202 0.068054 0.532767 0.704496 0.173803 0.279111 -0.241395 0.008698 0.222928 -0.055459 0.327584 -0.132465 -0.498908 0.181684 0.064372 0.370551 -0.070799 0.136665 -0.116396
nas -0.266198 0.072616 0.366669 -0.453265 -0.336661 0.119086 -0.164564 -0.020293 -0.309200 -0.261823 0.313051 -0.100464 -0.511129 -0.421112 -0.405379 0.299785 0.266675 0.070288 0.169339 -0.126892 -0.096187 -0.305701 0.499399 0.052339 -0.161198 -0.553448 0.277846 -0.093296 0.172640 -0.157006 0.219297 0.397713 -0.529290 -0.160757 0.275690 0.480929 0.221850 -0.136119 0.246409 -0.049131 -0.033111 -0.028855 -0.735294 -0.398627 -0.116454 0.273905 -0.431161 0.433643 0.018796 -0.035217
este 0.032331 -0.005987 -0.198979 0.238749 -0.459506 -0.307710 0.029701 0.059021 -0.513748 -0.015082 0.236241 -0.186966 0.114133 0.280682 0.333003 0.005906 -0.156924 0.054650 -0.211297 0.093172 0.184014 -0.245233 -0.520172 -0.077111 -0.127676 0.125430 0.474049 0.254468 0.015222 -0.343079 -0.463347 0.034046 -0.572334 0.011434 0.281570 -0.336876 0.137031 -0.011101 0.200143 -0.135664 0.026120 0.127313 -0.234578 0.140323 -0.152479 -0.054735 -0.012034 0.280092 -0.242571 0.358062
segundo 0.190901 -0.306036 -0.225748 0.188094 0.457682 -0.413311 0.002439 0.099721 -0.176982 0.146731 -0.051591 -0.097935 -0.263160 0.180676 -0.191526 -0.138617 -0.024159 0.347302 -0.177923 -0.394813 -0.107008 0.316517 -0.047873 -0.306989 0.197332 0.074558 0.107312 0.362432 -0.223223 0.343209 -0.112321 0.032546 -0.068504 -0.019619 0.167244 0.059170 -0.495997 -0.301290 -0.109449 -0.447818 -0.348235 -0.188573 -0.087672 -0.263160 0.166377 -0.227240 -0.043080 0.181898 -0.590711 -0.170824
comissão -0.306975 0.379277 -0.014631 0.026234 0.167269 -0.062476 -0.224295 -0.224618 -0.303858 0.156032 -0.360141 -0.185232 0.091300 0.069819 -0.402067 0.574204 -0.274878 -0.237076 -0.605752 0.312052 -0.785056 -0.082266 -0.354681 0.137450 -0.120481 -0.018686 0.217644 -0.069758 0.102755 -0.008425 0.175850 -0.435626 0.085948 -0.659927 -0.050797 0.380319 -0.394668 -0.182752 0.502834 0.170226 0.289859 0.456589 0.248910 0.032968 -0.264588 -0.392039 -0.495116 -0.057584 -0.341951 0.204977
ano 0.003982 -0.626337 -0.391406 0.069106 0.062746 0.736234 0.119951 0.083368 1.075750 0.131828 0.155801 0.242714 0.061706 0.074998 -0.139067 -0.000170 -0.076481 0.384173 -0.157612 0.408612 -0.761931 0.446415 0.122453 0.292503 0.486961 -0.399277 -0.015534 -0.373672 0.142595 -0.584823 0.190363 -0.324015 0.720333 -0.390908 -0.040517 0.200670 0.739686 -0.038534 -0.344571 0.354712 -0.316921 -0.352423 -0.185760 -0.106598 0.428548 -0.193944 -0.082876 -0.396037 0.442577 0.013095
dois 0.000759 -0.009705 -0.029342 0.136666 -0.061578 -0.049962 -0.099813 0.250531 0.382736 -0.348462 0.543768 0.142858 -0.074714 -0.092879 0.050449 0.097271 -0.241321 0.178653 0.290753 0.323918 -0.012502 0.135040 0.235284 -0.457116 -0.353683 -0.028306 0.368195 -0.082441 0.146651 0.219462 -0.394039 0.038510 0.149980 -0.104514 -0.402045 -0.028822 -0.032574 0.018205 0.013483 0.028497 -0.033608 0.386058 0.004367 0.089949 0.242211 0.033387 0.033985 -0.368545 -0.609191 0.074677
seus 0.344037 -0.306259 0.181873 -0.089352 0.224218 -0.254785 -0.181321 0.156703 0.121081 -0.085442 0.065689 -0.068008 0.256586 -0.038693 0.084487 -0.064749 0.026499 0.171829 0.322066 0.420195 -0.025311 0.270692 0.358335 -0.389914 -0.373797 -0.123556 0.176856 0.163095 -0.064464 0.294599 -0.431916 0.147341 0.347482 -0.253761 -0.348944 0.032169 0.051103 0.006333 -0.184769 0.010716 0.199172 0.401976 0.113319 0.094452 0.125427 -0.149232 0.112458 0.031732 -0.152716 0.107818
ela 0.012675 -0.028641 -0.152298 -0.090673 -0.155373 0.146289 0.017647 0.053625 -0.003086 -0.030968 0.012788 -0.127560 -0.075843 0.078728 -0.146365 0.057100 0.082557 -0.054502 0.035326 0.022844 -0.424102 0.082006 -0.162244 0.398268 -0.087737 0.013251 0.396618 0.282899 -0.143404 -0.043923 -0.236687 0.110182 -0.230665 0.033402 -0.057018 -0.191529 0.437847 0.066902 0.039884 0.193357 0.401789 -0.127859 0.021058 0.106857 0.049920 0.146709 0.062622 -0.042762 -0.123052 0.202330
onde 0.131261 -0.274583 -0.067667 0.134008 0.419395 -0.228150 0.010670 -0.119128 -0.004610 -0.050203 0.255700 0.091068 -0.362321 -0.087146 -0.095782 -0.128862 0.294843 0.339511 0.087613 0.117030 -0.088685 -0.072672 -0.102771 0.088795 -0.027211 0.095508 0.168502 0.106214 0.288779 0.093701 0.067155 0.016759 -0.533500 -0.123058 -0.118342 -0.371884 -0.099685 -0.259198 -0.041147 0.001188 0.342830 -0.443113 -0.147497 0.053293 0.203856 0.208535 -0.265972 0.028823 -0.263330 -0.004593
depois -0.227348 -0.085114 -0.245401 0.131876 0.426380 0.125504 -0.090290 0.310530 -0.065828 -0.166833 -0.094273 -0.392301 -0.110486 0.135129 0.019474 0.423931 -0.341918 0.073850 -0.168120 0.156116 -0.122613 0.074077 -0.152352 -0.121789 -0.280654 -0.143898 -0.172278 -0.208559 0.251811 0.024554 -0.066539 -0.160724 -0.326072 -0.190784 -0.193481 0.004800 0.152182 -0.091926 -0.022662 0.420164 -0.221099 0.174151 -0.263243 -0.269574 -0.196921 0.469907 -0.100626 -0.104002 -0.400317 -0.354620
há -0.309382 -0.239296 -0.080310 0.207611 -0.281957 0.003231 0.120600 0.389622 -0.296726 -0.467302 0.000455 -0.264128 0.231306 -0.173486 -0.210692 -0.191482 -0.181348 0.231359 0.027571 -0.123991 0.037187 -0.107493 -0.003013 -0.287258 -0.192298 -0.124426 -0.113353 -0.313459 -0.324931 -0.157072 0.256448 0.285405 0.182409 -0.282898 0.311401 0.218355 0.004765 -0.166675 -0.224896 0.092710 -0.257169 0.106608 -0.104735 -0.144806 -0.128331 0.288134 0.140056 0.007287 -0.204505 -0.347498
esta -0.101821 -0.257768 -0.201342 -0.231908 -0.083921 -0.048224 0.152878 -0.039366 -0.245683 -0.377721 0.196447 -0.164268 -0.004275 0.378129 0.156720 0.032332 -0.278780 -0.003527 0.235629 -0.177913 0.218254 -0.322457 0.072958 0.420339 -0.153417 0.056875 0.636602 -0.053329 -0.363475 0.061824 0.023133 0.403635 0.097219 0.360034 -0.141818 -0.241970 0.151488 0.325633 0.180374 0.259902 0.005171 -0.575705 -0.067661 0.186635 0.439573 0.005572 -0.267466 -0.130720 0.203278 -0.041387
dia 0.034458 -0.369910 -0.065064 -0.134897 0.335350 0.361239 0.000368 -0.031364 0.579397 0.536839 -0.571957 0.067972 -0.276751 0.094249 -0.330255 -0.410001 -0.257585 0.282692 -0.296179 0.256170 -0.032783 0.272280 0.063575 0.284544 0.765456 0.037954 0.188617 -0.115530 -0.039435 -0.678975 0.264565 -0.021862 0.582795 -0.161701 -0.079275 0.197171 0.619649 -0.298799 -0.330954 0.199880 -0.236441 -0.147641 -0.249883 0.023222 0.254760 0.030165 -0.348616 -0.319384 0.417179 0.029180
% 1.056391 0.502049 0.477692 -0.354580 -0.442871 -0.346818 -0.205593 -0.527243 -0.088092 0.588507 -1.005973 -0.680631 -0.110454 0.599212 0.367865 -0.349976 -0.216747 -0.344829 -0.789066 0.037575 0.496932 0.066736 0.117266 -0.016100 0.269999 0.165891 -0.313607 0.248907 -0.695936 -0.196997 0.189297 -0.116295 -0.440136 -0.939570 0.492571 -0.343486 0.765420 0.194349 0.511637 0.137330 0.188853 -0.591773 -0.131445 -0.440833 0.174287 0.147036 0.086175 -0.635135 0.702436 -0.513767
todos -0.039049 0.223506 -0.159436 0.265323 0.337605 0.002810 -0.059797 0.060452 0.424079 -0.280526 0.302470 0.335811 0.124054 -0.052056 0.049541 -0.092979 -0.034525 0.123168 -0.001614 0.148094 0.090706 -0.133232 0.182349 -0.036228 0.199980 -0.163552 0.324367 0.018736 0.093966 0.332056 -0.217578 -0.107308 -0.013818 -0.410745 -0.230556 -0.180127 0.133674 0.201165 0.107170 0.074567 -0.124310 0.329291 0.296560 0.243874 0.054772 0.022581 0.039630 0.299644 -0.444118 -0.019962
só 0.026890 -0.108750 -0.135703 0.012895 -0.136342 0.011990 0.003042 0.069426 -0.078955 -0.041137 0.036492 0.023690 -0.014115 -0.082233 -0.060867 -0.185214 0.079431 0.039275 -0.050864 -0.107079 -0.076739 -0.094007 0.064104 0.065944 0.098959 0.094126 0.119489 0.007373 -0.219135 -0.140684 0.027003 0.076409 -0.071081 0.010305 -0.045508 -0.136415 0.189939 -0.026094 0.037860 0.117290 0.133117 0.060965 0.166952 0.090152 0.016968 0.046304 0.007981 0.025543 -0.178661 0.045358
me 0.041255 -0.285661 -0.085677 0.008016 -0.015093 0.270624 -0.133121 0.031367 -0.113315 0.000237 -0.463744 0.065044 0.084858 -0.197153 0.107694 0.040069 0.365264 -0.396445 0.189347 -0.124292 -0.272492 -0.130885 0.044966 0.178650 -0.147833 0.021948 0.252452 0.151429 -0.217303 -0.070602 -0.216389 -0.022756 -0.062913 -0.143144 -0.153652 -0.067362 0.496289 0.080759 0.026330 0.203226 0.087526 0.122636 -0.043654 0.264770 -0.114579 0.327289 0.141956 -0.177563 -0.220198 0.177589
vai -0.304525 -0.325551 -0.239397 -0.292970 0.508138 0.319719 -0.464629 -0.026747 -0.204611 -0.227692 -0.043124 -0.016162 0.497207 -0.520666 -0.020559 0.252913 -0.062293 -0.253996 -0.349651 -0.442469 0.362603 -0.161448 -0.458701 -0.387289 0.016658 -0.052048 -0.494017 -0.551104 -0.292946 0.280498 -0.157053 0.054951 0.102945 0.387133 0.539727 -0.106143 0.267854 0.071953 0.050415 0.175048 -0.144966 0.502553 -0.112395 -0.336049 0.072680 -0.088684 0.035595 -0.065710 0.124488 -0.220929
sem -0.013616 -0.375581 0.009952 0.350641 0.222993 0.055563 -0.056816 -0.099033 -0.060908 -0.278261 -0.002747 -0.005678 -0.046832 -0.258626 -0.009827 0.051316 -0.207126 0.190010 0.012638 -0.178055 -0.036555 -0.533092 0.160010 -0.394594 -0.216919 -0.223609 -0.091185 -0.238609 -0.057074 0.286022 -0.137486 0.306060 -0.326357 0.127010 0.361516 0.009795 0.386897 0.047366 -0.173854 0.035430 -0.009734 -0.018218 -0.172283 0.114514 -0.014646 0.005814 -0.097309 0.150080 -0.212793 -0.235379
grande 0.162664 -0.071624 -0.113963 0.284240 -0.288864 -0.041472 0.074442 0.025256 -0.043570 -0.404016 -0.032537 -0.007834 -0.076500 0.169191 -0.016566 -0.347273 -0.055375 -0.012116 0.190033 0.079340 0.312318 -0.141432 -0.031368 0.269959 0.075296 -0.318478 -0.099093 -0.141957 0.129393 0.191884 0.076105 -0.059553 0.357581 0.122260 -0.024506 -0.032974 0.115130 -0.129361 0.020680 -0.018733 0.305692 0.061296 -0.384734 0.222633 0.039326 -0.022314 -0.061494 0.114862 0.043288 0.055063
parte -0.140238 0.441336 0.022831 0.163665 -0.025831 -0.347468 -0.132547 0.029140 0.151032 0.086561 -0.037537 -0.028324 -0.246214 -0.059342 0.432958 0.516079 0.180679 0.045068 -0.446714 -0.046002 -0.357903 0.499927 -0.552504 0.463169 -0.534644 0.189852 -0.061421 -0.238987 0.145754 -0.212214 -0.121793 -0.113703 -0.290224 -0.748728 -0.104480 -0.022767 0.002230 0.182836 0.063957 -0.391342 0.444863 0.084382 0.097419 -0.084009 0.110444 0.418726 0.149718 -0.350715 0.322044 -0.043411
presidente -0.093907 0.271813 0.045385 -0.062937 0.135744 -0.495446 -0.633432 -0.278358 -0.281258 -0.352969 -0.389262 0.037469 -0.576813 -0.106252 -0.131994 0.037046 0.151033 -0.178932 -0.449697 -0.074721 -0.643320 0.471278 -0.275966 0.350979 0.285883 0.280474 -0.281239 0.363799 0.159182 0.434006 0.020838 -0.398882 0.339602 -0.055495 -0.196537 0.323546 0.080960 0.033596 0.265669 0.438394 -0.287924 -0.161542 -0.051969 -0.266580 0.080336 -0.073548 -0.224689 -0.007176 0.022561 -0.229548
fazer 0.170627 -0.280704 0.235052 -0.100621 -0.102740 -0.279941 0.637803 0.461690 0.087442 0.041173 -0.042573 0.195250 -0.114193 0.017002 -0.357778 -0.208844 -0.189839 -0.346615 0.040043 0.037708 -0.202680 -0.107558 0.280733 0.165558 0.305982 -0.188304 0.161876 0.109262 -0.046510 -0.020648 0.015334 -0.146402 0.017166 -0.172092 -0.160138 0.074420 -0.161579 0.045194 -0.012424 0.047623 0.104030 0.095316 0.414843 -0.069167 -0.177146 -0.020944 -0.171267 0.289589 -0.161844 -0.189501
outros 0.247889 -0.096502 0.143628 0.100484 0.060600 -0.211718 -0.127316 0.088142 0.124651 -0.080191 0.040398 -0.035863 0.167638 -0.024585 0.056213 0.072434 -0.141785 0.105335 -0.044079 0.327893 0.082184 0.129088 0.293144 -0.276273 -0.355424 -0.083632 0.528442 0.501265 -0.024530 0.282132 -0.238289 0.257042 0.291547 -0.442473 0.004785 -0.113437 -0.008074 -0.084342 -0.054313 0.073941 0.292853 0.627762 0.012442 0.011553 0.191317 0.000424 0.113411 -0.308043 0.021228 -0.045809
durante -0.348912 -0.050604 -0.080860 -0.053365 0.382707 -0.211242 0.012060 0.110548 0.041663 -0.364821 0.007502 -0.064617 -0.079509 0.068020 -0.124224 -0.306517 -0.081321 0.147931 0.110537 -0.062301 0.028959 0.045686 0.247574 -0.338948 0.109178 -0.219317 -0.152739 -0.189280 0.511604 0.042975 -0.129896 -0.209214 -0.538515 0.212061 0.300710 0.187350 -0.146719 -0.138445 0.230518 -0.074072 -0.306827 -0.115336 0.031602 0.075583 0.132822 -0.090996 -0.134952 -0.024857 -0.410995 -0.173489
estado 0.254259 0.588025 -0.056152 -0.055573 0.206882 0.408681 -0.325860 -0.144961 0.671040 -0.237184 -0.009760 0.785549 0.249680 -0.018667 0.296448 -0.005555 0.163902 -0.462612 -0.203502 -0.152195 -0.898882 0.567912 0.136436 0.785681 0.137562 0.366535 -0.104239 0.164342 0.289210 0.004095 0.027409 -0.560103 0.997733 -0.346338 0.505060 0.267630 0.159966 -0.278708 0.134177 0.344001 -0.505864 -0.431534 -0.403217 0.218687 -0.011242 0.524582 -0.333766 0.035323 -0.136235 -0.627216
contra 0.054381 0.065538 0.110654 -0.168255 0.549637 -0.272958 -0.099016 0.039032 -0.017980 -0.084053 -0.153915 0.081702 -0.191025 -0.245885 0.037869 -0.283090 -0.095215 0.165518 -0.101861 -0.411022 0.068068 -0.201126 0.464555 -0.427932 0.179533 0.035298 -0.475348 0.001008 0.244515 0.273847 0.062023 0.016520 -0.096890 0.088455 0.010282 0.319187 0.024478 -0.153335 0.272592 -0.271649 -0.066310 -0.188970 0.070607 0.304770 0.135865 -0.231362 -0.006333 0.207861 -0.160447 -0.152058
vez -0.109451 0.178622 -0.359834 0.421932 -0.018285 -0.067836 -0.207200 0.844204 0.117857 -0.302323 0.145300 0.316447 -0.416439 0.177588 -0.252961 -0.063497 0.118163 0.536463 -0.356060 0.236738 -0.414599 0.308175 -0.412724 -0.011299 0.335173 -0.336792 -0.813887 -0.300286 -0.490645 0.208059 -0.204089 -0.241625 -0.399274 -0.857080 -0.039509 -0.003267 0.114579 -0.052551 -0.377194 0.080664 0.324015 0.550570 -0.248156 0.313994 -0.198917 0.506793 0.201855 -0.332125 0.827491 0.505767
apenas 0.045243 0.038117 0.042720 0.030055 -0.066598 -0.064010 0.057655 -0.028811 -0.102127 -0.006685 0.038636 0.058410 0.008515 -0.080414 -0.021051 -0.102047 0.056054 0.173484 -0.049907 0.002847 0.015292 -0.035146 -0.023096 0.018637 0.128377 -0.018692 0.167080 -0.007131 -0.199346 -0.127624 0.001367 0.077402 -0.063508 0.052810 -0.090634 0.039232 0.206183 -0.139658 0.123046 0.182257 0.090661 0.020982 0.069222 -0.065214 0.057958 0.039708 0.065848 -0.148644 -0.117460 0.142008
primeiro -0.034930 -0.132038 -0.065702 -0.036422 0.302183 -0.562495 -0.088646 0.031236 -0.067744 -0.036450 -0.277823 0.021287 -0.444245 0.319010 0.224696 -0.109948 -0.083153 0.192534 -0.238412 -0.280549 0.173932 0.541977 -0.276380 -0.026834 -0.079334 0.037417 -0.102184 0.079363 0.105141 0.011090 -0.365010 0.131310 -0.151278 0.133639 -0.052435 -0.112025 0.007055 -0.181314 0.084204 -0.439772 -0.453228 0.069377 -0.251967 -0.170623 -0.089425 -0.221544 -0.065136 0.292816 -0.581609 0.071360
tempo -0.043172 -0.389536 -0.333539 -0.002825 -0.075283 0.408099 0.205375 0.061457 0.559752 0.176524 -0.068818 0.101564 -0.218682 0.271451 -0.075912 0.023505 0.014882 -0.125626 0.278187 0.452641 -0.418488 0.271558 -0.115613 0.271990 0.311205 -0.208715 -0.253500 -0.068412 0.028606 -0.228044 -0.000109 -0.261716 0.416907 -0.315965 -0.136876 0.113369 0.558344 -0.019174 -0.101754 0.292771 0.066037 0.145333 -0.164109 -0.171257 0.788345 0.017323 -0.043605 -0.074397 0.033391 -0.243813
disse -0.122271 -0.221853 -0.168630 0.112429 0.221438 0.234059 -0.305841 0.417174 -0.018935 -0.025813 -0.141235 -0.020790 0.215933 -0.011022 -0.327378 -0.213934 -0.200122 -0.013868 -0.437893 -0.596177 -0.382955 -0.339493 0.067980 -0.305449 0.074593 -0.194123 -0.205472 0.544803 -0.345540 0.278383 0.073150 -0.380879 -0.146941 -0.000055 0.212389 0.177474 -0.433850 0.146529 -0.516616 0.045726 -0.201119 0.329201 -0.182092 0.019406 0.293397 -0.037896 -0.055076 -0.055434 0.132898 -0.638149
assim 0.026219 0.001163 -0.146328 0.300126 0.214265 -0.141447 -0.049002 0.285516 0.002837 -0.339082 0.119371 0.198422 -0.029705 0.127488 -0.116838 -0.282720 -0.005346 0.299325 -0.351353 -0.061842 -0.364224 -0.198328 -0.192466 0.344729 -0.121220 -0.042054 0.076093 0.362279 -0.068349 0.206828 -0.061399 0.084167 -0.141248 -0.303741 0.196314 -0.259595 0.438870 0.157964 -0.230230 0.125462 0.071986 0.060502 -0.035562 -0.012183 0.227865 0.105655 0.100438 0.088730 0.026127 0.062418
cidade 0.344348 0.725213 0.143373 0.242842 0.459025 -0.122713 -0.103489 0.083812 -0.000902 -0.046265 0.024813 -0.027477 0.365588 -0.271403 -0.562575 -0.140083 0.549727 -0.241874 -0.581645 0.555609 -0.286875 0.181539 -0.462955 0.910855 -0.301875 -0.039525 -0.195643 -0.046820 0.438691 -0.186569 0.310548 -0.198562 0.199097 -0.574673 -0.183585 0.255490 -0.042999 -0.047990 -0.129351 0.005851 0.588795 0.206001 -0.295466 0.099995 -0.555188 -0.049762 -0.001732 -0.066056 -0.142150 0.097886
após -0.496656 -0.171433 -0.196198 0.034513 0.771157 -0.184741 -0.071291 0.044766 -0.164392 -0.212539 -0.082405 -0.038059 -0.091799 -0.148329 -0.103584 0.013732 -0.191022 0.255391 -0.044986 -0.139792 0.029007 -0.084142 0.097869 -0.495717 -0.076050 -0.310523 -0.474219 -0.324703 0.299819 0.066530 -0.282614 -0.051779 -0.400089 0.077213 0.084113 0.293002 0.074515 0.034012 0.057016 0.064486 -0.196744 -0.050439 -0.145911 -0.036240 0.152959 -0.135728 -0.130376 -0.078275 -0.274485 -0.179223
suas -0.027931 0.212310 0.003614 -0.147302 -0.151988 0.043851 0.027191 0.094399 -0.208232 -0.050520 0.043676 0.396357 -0.015594 -0.379826 -0.100043 0.530849 0.305175 -0.137851 0.189794 0.350125 -0.058214 0.157857 0.217683 -0.144975 0.015492 -0.603859 0.272124 0.153836 -0.302419 0.000718 0.156985 0.230218 -0.292049 -0.029381 -0.070383 0.214643 0.460436 -0.083600 -0.052328 -0.296729 -0.024046 0.063312 -0.228385 -0.032054 0.028748 -0.154043 -0.230916 0.246196 -0.006118 -0.097156
agora 0.081180 -0.184674 -0.275602 0.182778 0.018047 0.076324 0.058935 0.034621 0.090191 -0.065843 0.001352 -0.052406 -0.146514 -0.053083 -0.116779 0.074067 -0.029823 0.022320 -0.256475 0.036536 -0.042523 -0.218316 -0.062330 0.101788 0.017023 0.168102 0.304783 0.225165 -0.155413 -0.045685 0.004027 0.048507 -0.200561 -0.099953 0.106707 -0.280798 0.221716 -0.099528 -0.050851 0.161505 0.149354 -0.058605 -0.125264 0.048940 0.150179 0.017655 -0.148192 -0.134159 -0.278382 0.003711
três -0.103477 0.194870 -0.019169 0.039820 -0.247048 -0.022391 -0.064575 0.372299 0.238407 -0.295493 0.549437 0.188479 -0.115944 -0.171820 0.017398 0.400890 -0.179576 0.118431 0.280328 0.338755 -0.153948 0.127393 0.208052 -0.448823 -0.232957 -0.219496 0.418432 -0.142970 -0.006123 0.102892 -0.118594 0.127729 -0.025197 0.040209 -0.494009 0.101875 0.035074 -0.086246 0.068934 -0.115179 -0.139082 0.306901 -0.237799 -0.085506 0.111833 0.042633 -0.114018 -0.365070 -0.627623 0.010657
primeira -0.496184 0.282981 -0.250716 -0.436285 0.068779 -0.423303 -0.068505 -0.115038 0.076891 0.020884 -0.133299 -0.119526 -0.035152 0.509647 -0.061883 0.230292 -0.036887 -0.332732 -0.642966 -0.305408 0.311351 -0.214719 -0.131192 0.222527 -0.256098 -0.170458 0.557020 -0.201601 0.508141 -0.026686 0.061741 0.389160 -0.071772 0.326152 -0.147592 0.144133 0.011803 -0.148295 0.260356 -0.285530 0.243495 -0.387275 0.211123 -0.098512 0.135729 -0.714145 -0.280637 -0.393375 -0.765390 -0.348501
acordo 0.113368 0.323739 -0.078545 -0.252116 0.448951 0.293505 0.536981 -0.289421 -0.835342 0.481235 0.003504 0.073395 0.009180 -0.029959 0.007437 0.434828 -0.949212 0.032751 -0.020148 0.096839 -0.287285 1.095790 0.339121 0.681698 0.421586 -0.180418 0.175243 0.121506 -0.094951 0.005940 0.201029 -0.086962 0.498196 0.110571 -0.427540 -0.231644 -0.776861 -0.390554 -0.279484 1.076435 -0.026155 0.493605 -0.271413 -0.119829 0.398288 -0.551578 0.007649 0.388717 -0.331407 -0.021026
pessoas 0.141642 0.296230 0.114832 0.218878 0.034972 0.057939 0.426779 -0.031486 -0.255204 0.380465 -0.660312 0.053063 0.655727 -0.019432 0.334420 -0.139324 -0.165349 -0.289038 -0.133558 0.211403 -0.222035 0.339010 -0.120546 -0.253423 0.113406 0.078210 0.208583 0.049053 -0.159642 -0.045910 0.221228 -0.434966 0.150781 0.136145 -0.150809 -0.543415 0.336720 -0.157959 0.021020 -0.132376 0.147300 -0.144837 0.225114 0.441447 0.197036 0.539587 0.341736 -0.503735 0.036876 -0.206278
estão -0.553960 0.174896 -0.067003 -0.629362 -0.073674 -0.129010 -0.050347 0.317309 0.025088 0.033511 -0.059911 -0.205479 0.646634 -0.380420 -0.163572 -0.450031 0.051585 -0.022265 -0.117791 -0.162904 0.185893 0.107481 -0.002138 -0.206378 -0.092782 -0.303051 0.013267 -0.094096 -0.145184 0.032114 0.200078 0.019126 0.768920 -0.055759 0.276446 -0.016940 0.140998 0.194222 0.312194 -0.163203 -0.148822 0.116678 -0.183176 0.219562 0.035649 0.072939 0.253712 0.380878 -0.282104 0.115100
conselho -0.216337 0.071525 -0.044975 -0.144659 0.207702 0.186253 -0.339963 -0.434731 0.161215 0.103921 -0.360658 0.466234 -0.272582 0.231545 0.221179 0.353760 -0.659655 -0.178208 -0.090115 -0.377509 -0.858490 0.708299 0.071136 0.111608 0.211221 0.186459 0.409947 0.209652 0.162699 0.301403 0.519242 -0.332205 0.595292 -0.317031 0.050289 0.202327 -0.082955 -0.593186 0.162749 0.573269 -0.432166 0.148426 0.085927 0.139346 0.118219 0.270523 -0.845335 0.251358 -0.097203 -0.190028
porque -0.126221 -0.330353 -0.262477 0.118354 0.146834 -0.116611 -0.102750 -0.248982 -0.141840 -0.044818 0.157211 0.095718 -0.084991 -0.116592 -0.104218 -0.077949 0.128491 0.350402 0.095339 0.009811 -0.079800 -0.114186 0.236081 0.100561 0.136706 0.344227 -0.141427 0.059477 -0.076745 -0.105248 0.023985 -0.006786 -0.271375 -0.192782 -0.135274 -0.233991 -0.025689 -0.184817 -0.115532 -0.157072 0.263272 -0.419861 -0.105877 0.104903 0.223536 0.090109 -0.183897 -0.088311 -0.499274 -0.037315
forma 0.052880 0.311330 -0.231810 0.100388 0.564752 0.065960 -0.151769 0.272923 0.081914 0.035195 -0.008626 0.014895 0.031923 0.126351 0.215652 0.495264 -0.531807 0.179509 -0.385649 0.348237 -0.335276 -0.036577 0.019843 0.615153 0.067618 -0.229785 -0.301453 -0.325630 -0.026161 0.183381 0.348622 -0.207527 -0.317873 -0.814274 0.074609 0.035617 -0.088047 -0.100401 -0.016102 0.003354 0.278656 0.712237 0.086240 0.163398 -0.177830 0.118155 0.298232 -0.053390 -0.159561 0.261371
governo 0.042624 0.186317 0.017973 -0.074566 0.128218 -0.109864 -0.341664 -0.241544 0.122946 -0.134167 -0.185414 0.458266 -0.736054 -0.050668 0.078424 0.234089 -0.079666 -0.376518 -0.391101 -0.335229 -0.783873 0.583200 0.193998 0.141844 0.199409 0.175675 -0.065952 0.223223 0.211591 0.123330 0.277561 -0.393794 0.492069 -0.135794 0.049224 0.093117 0.323887 -0.101001 0.058641 0.578018 -0.270030 0.044937 0.087474 -0.097629 0.264940 -0.011435 -0.474970 0.078031 -0.030156 -0.317680
então 0.128516 -0.309635 -0.448354 0.235163 0.210179 -0.017247 -0.054943 0.122845 -0.001664 0.053046 0.115817 -0.086472 -0.100053 -0.018125 -0.241142 0.195611 0.154123 0.091934 -0.128997 0.006381 -0.012716 -0.031731 -0.151569 -0.017549 0.095905 0.071436 0.246571 0.223137 -0.004671 0.092498 -0.003164 -0.051542 -0.158586 -0.143194 0.101602 -0.107353 0.200900 -0.237761 -0.142718 0.095675 0.045651 -0.315110 -0.162101 0.125952 0.199247 0.007382 -0.048617 -0.096212 -0.194213 0.068476
trabalho 0.028748 -0.243838 0.035866 -0.063458 0.108147 0.240008 0.162870 -0.058766 0.261289 0.244170 -0.309985 0.216996 -0.310024 0.197007 0.185794 0.225417 -0.209373 -0.112401 0.080255 0.190707 -0.397447 0.565900 0.102172 0.568397 0.130207 -0.201171 0.084340 -0.055521 0.034527 0.160175 0.197091 -0.136165 0.463079 -0.079487 -0.089116 0.053327 0.106886 -0.244789 -0.008888 0.204404 -0.194840 0.174424 -0.159655 -0.264882 0.139232 0.160365 0.043564 0.285066 -0.159811 -0.223366
tudo 0.069894 -0.181236 -0.295803 0.089991 -0.014073 0.366052 0.057085 0.077046 0.355942 0.149946 -0.113342 0.016079 -0.169479 -0.061232 0.126586 0.165332 -0.259631 -0.212030 -0.036146 0.178723 -0.271327 -0.128264 0.095620 0.376964 0.024835 0.210175 0.282907 0.265523 -0.320507 -0.145589 0.082754 -0.002807 -0.220651 -0.093349 0.055591 -0.273196 0.509452 -0.097693 -0.121576 0.195093 0.268625 0.326182 0.162867 0.047668 0.098420 0.015385 -0.013987 0.014194 -0.402134 0.059276
desde -0.278387 -0.091887 -0.112985 -0.144699 0.223357 0.093012 0.059260 -0.094512 0.002383 -0.290517 0.175725 -0.132313 -0.045824 -0.075845 -0.162003 -0.529060 0.051295 0.109767 -0.130391 -0.285238 -0.314913 0.135962 0.175433 -0.233753 -0.108434 0.008722 0.036133 0.061421 0.407031 -0.368953 0.120116 -0.145800 -0.542942 0.020586 0.375810 -0.057170 0.008217 0.158350 0.095794 -0.008326 -0.071239 -0.070646 0.118806 -0.204597 0.170101 -0.108774 0.025000 0.046542 0.169051 -0.158230
eles 0.349304 -0.064845 -0.087484 0.068495 -0.033417 -0.011670 0.104027 -0.095494 -0.273022 -0.004764 -0.020491 0.166476 0.031897 -0.356429 -0.121509 0.227640 0.007343 -0.199658 -0.116308 0.292534 -0.169665 -0.011072 0.079609 0.071684 -0.017791 0.156955 0.555727 0.463975 -0.110120 -0.030459 -0.338721 0.253931 0.044413 -0.376911 -0.018732 -0.127296 0.106431 -0.169164 -0.042600 0.155390 0.238571 0.171527 -0.055581 0.252534 0.424964 0.236082 0.315150 -0.311556 0.158147 -0.017551
aqui -0.033892 -0.221770 0.001146 -0.033327 0.057199 0.160358 -0.031991 0.037514 0.226972 -0.030317 -0.027541 0.068525 -0.278740 -0.115433 -0.101630 -0.011203 -0.045322 -0.191809 -0.087894 0.223709 -0.279968 -0.370409 -0.225407 0.117943 -0.074164 0.103215 0.201708 0.217022 -0.115861 -0.110899 0.091384 0.193021 -0.271118 -0.050172 0.024928 -0.398628 0.195690 -0.252149 -0.069565 0.085015 0.203243 0.063230 0.016143 0.185353 0.079203 0.245333 -0.044021 -0.045565 -0.155414 -0.069597
grupo 0.103869 0.009805 0.224709 -0.017560 0.169178 0.094637 -0.230973 -0.048045 0.346101 0.048756 -0.322988 0.181481 -0.344415 -0.082144 0.204631 0.094875 -0.318429 -0.071108 -0.158513 -0.122894 -0.322177 0.611580 0.186532 0.217056 0.376007 -0.085986 0.154635 -0.149539 0.263250 0.283821 0.332276 0.026955 0.338880 -0.160626 -0.113618 0.280055 0.065369 -0.452781 -0.073022 0.432698 0.027642 0.041113 -0.012294 -0.316569 0.480214 0.224707 -0.330426 -0.112135 0.011730 0.133380
maior 0.156845 0.054102 -0.202860 0.176446 -0.385475 -0.159767 -0.009256 -0.118339 -0.005884 -0.175118 0.104007 0.099897 -0.085631 0.341137 -0.040920 -0.327481 -0.434101 -0.164828 -0.030590 -0.089830 0.202155 0.083198 0.137083 0.189558 0.087206 -0.482184 -0.202007 -0.111299 0.089841 0.142470 0.076022 -0.048348 0.070046 0.062596 -0.058411 -0.177185 -0.066636 -0.020169 0.297507 -0.089556 0.261136 0.092285 -0.226035 0.158263 0.212892 -0.128957 -0.090061 0.052134 -0.214716 -0.067564
duas -0.074691 0.400382 -0.167242 -0.131926 -0.235959 0.155458 0.014461 0.380542 -0.009033 -0.245528 0.346367 0.411688 -0.189098 -0.300083 -0.141621 0.642391 0.103631 -0.027373 0.187483 0.262576 -0.235746 -0.037080 0.212213 -0.202988 0.029343 -0.420221 0.284806 -0.082569 -0.171298 -0.030081 0.269856 0.248848 -0.250595 0.245105 -0.444059 0.108752 0.258528 -0.035257 0.169304 -0.379868 -0.174153 0.000361 -0.341999 -0.064083 0.142767 0.048038 -0.209252 -0.123490 -0.466495 0.037788
caso 0.072551 -0.182747 -0.192147 0.055933 0.251263 0.132892 -0.318830 0.002619 0.401242 0.307045 -0.315194 0.214089 -0.364540 0.137642 0.068162 0.267774 -0.158819 0.228670 -0.215835 -0.083534 -0.305280 0.447106 0.214880 0.268757 0.273888 0.191215 -0.303680 -0.178514 -0.171028 -0.113013 0.302821 0.101982 0.589392 -0.332547 -0.001131 0.002794 0.182122 -0.079583 -0.210989 0.105724 -0.232086 -0.218313 -0.321212 0.106311 0.394207 -0.102596 -0.009771 -0.034689 -0.312099 -0.101852
quem 0.345233 -0.146187 -0.063234 0.020407 -0.099399 0.016883 0.110209 -0.205030 -0.149589 0.220416 0.024481 0.154906 -0.182897 -0.035177 0.056748 0.225995 0.262734 -0.071297 0.139411 0.099244 -0.295843 0.053098 0.012040 0.416230 0.125857 0.267432 0.345687 0.153033 -0.048813 -0.006108 -0.190255 -0.036890 -0.236836 -0.238185 -0.425579 -0.500042 0.355739 0.071269 0.095936 0.182607 0.541408 -0.143709 0.007439 0.174441 -0.018048 -0.187619 -0.150323 -0.105831 -0.554196 0.165951
antes -0.354558 -0.172851 -0.146712 0.046193 0.438462 0.141844 -0.276910 0.222983 -0.089236 -0.098988 -0.073240 -0.310770 -0.244443 0.085411 0.092103 0.341454 -0.328183 -0.029526 -0.142738 0.202125 -0.174292 -0.014088 -0.164081 -0.096111 -0.258634 -0.104621 -0.229152 -0.444445 0.272510 0.045315 -0.076807 -0.109128 -0.284758 -0.220431 -0.192501 -0.063762 0.146704 -0.118674 0.067449 0.367615 -0.200084 0.182237 -0.350591 -0.210811 -0.183859 0.582347 0.077903 -0.013760 -0.223645 -0.282996
país 0.082574 -0.134285 0.101461 0.024168 0.047579 0.035302 0.021127 -0.100399 0.601090 0.050533 -0.167512 0.404020 -0.313909 0.128607 -0.041603 0.087760 0.101522 -0.445847 -0.182951 -0.004799 -0.574343 0.712661 0.162830 0.339246 0.051631 0.122780 -0.123125 -0.099496 0.172729 0.023922 0.193165 0.009575 0.640202 -0.125129 0.128504 0.068948 0.498599 -0.396895 -0.153684 0.353933 -0.264482 -0.029700 -0.323453 0.075736 0.490205 0.087629 -0.132110 -0.027129 0.171960 -0.134478
além -0.109735 -0.259963 0.074463 0.228268 0.397954 0.144519 -0.172791 0.429415 -0.175904 0.238084 0.138761 -0.221881 -0.258742 0.040003 -0.033778 1.046131 -0.269640 0.185362 -0.533037 0.053042 -0.149992 -0.030078 -0.331850 0.179000 -0.164555 -0.127329 -0.171771 -0.391428 0.178675 0.597132 0.065058 -0.143044 0.040430 -0.679376 -0.029217 -0.307055 -0.356877 -0.039788 -0.247246 0.031346 -0.008569 -0.174997 -0.693978 -0.686626 -0.143824 1.070946 0.010120 -0.027302 -0.014412 -0.493771
casa 0.070092 0.407779 -0.178947 0.052426 0.333784 -0.096429 -0.118846 0.150298 0.405489 0.379862 -0.147789 -0.247617 -0.253618 -0.154654 -0.325465 0.278158 0.277892 -0.325618 -0.162581 0.341932 -0.219675 0.232314 -0.559868 0.198624 0.004463 0.064551 -0.074074 -0.104219 -0.173028 0.185337 -0.054955 -0.208542 0.070023 -0.373232 -0.202503 0.302722 -0.068159 -0.323273 -0.187645 -0.176686 0.494597 0.461743 -0.030792 0.411102 -0.426649 0.002221 0.165203 -0.114366 -0.239922 0.116335
estava -0.319458 0.052253 -0.458297 -0.623211 -0.096360 0.020428 0.279990 0.219054 0.179529 -0.092812 -0.384613 -0.048684 0.434175 -0.699528 0.074184 -0.067275 0.044332 -0.048344 -0.202395 -0.415308 0.358869 0.265615 -0.314354 0.068085 -0.247994 -0.205027 -0.026526 -0.019324 -0.243497 -0.311348 -0.042029 0.013305 0.463376 0.047764 0.443790 0.456044 -0.301031 0.088594 -0.098647 -0.054078 -0.209481 0.358203 -0.125971 0.219717 0.105890 -0.064616 0.651090 0.075202 0.001959 -0.166466
meu 0.123536 -0.612100 0.083656 0.229886 -0.114066 -0.130859 -0.064350 -0.315067 0.207246 0.014197 -0.089845 0.082444 -0.041993 -0.012729 0.430891 0.194701 0.127418 0.002351 0.095909 -0.270337 0.011524 -0.123086 -0.365522 -0.145844 0.212362 -0.101885 0.099094 0.422805 -0.140520 -0.186231 -0.579758 -0.074314 -0.309800 -0.066689 0.258133 -0.301775 0.369287 -0.108270 -0.246128 -0.383049 0.071908 0.384301 -0.102355 0.217517 -0.256373 -0.162466 0.009212 0.149442 -0.140179 0.130531
será -0.302291 -0.260235 -0.402393 -0.051536 0.088457 -0.090989 0.152288 0.257316 -0.021609 -0.124242 -0.210980 -0.091033 0.041612 -0.505543 0.079232 0.063965 -0.136184 -0.127844 -0.260327 -0.362852 0.147762 -0.291423 0.180109 -0.143621 -0.153120 -0.453066 -0.007177 -0.169284 -0.084321 -0.414023 0.209928 -0.485483 0.124952 -0.316051 0.528188 0.439488 -0.501603 -0.075526 0.017492 0.133455 -0.549189 0.080148 0.351479 -0.174342 0.136492 0.107043 0.531193 -0.214345 -0.000411 0.124430
deve -0.370570 -0.337621 -0.193082 -0.281225 0.520570 0.273664 -0.600000 -0.169891 -0.259934 -0.211641 0.047301 -0.033168 0.496515 -0.479907 -0.052681 0.398570 -0.259979 0.059203 -0.480848 -0.431058 0.436537 -0.228142 -0.490651 -0.542826 -0.014274 0.019591 -0.719422 -0.682083 -0.347252 0.343482 -0.071176 0.196967 0.056951 0.534996 0.669009 0.095638 0.171651 -0.128826 -0.004162 0.165667 -0.116037 0.305680 -0.179174 -0.441471 0.174746 -0.095702 0.170968 -0.011672 0.148250 -0.192595
sido -0.233968 -0.400161 -0.299760 -0.332168 0.548662 -0.363774 -0.491317 0.354982 0.044116 0.265117 0.478510 0.547282 0.174396 0.503612 -0.342970 0.138517 0.241911 0.193407 0.276105 -0.002894 -0.382798 -0.065582 0.090945 0.178262 -0.264329 -0.428278 0.238932 0.444314 -0.196854 -0.561119 -0.022433 -1.128634 0.358373 0.338801 -0.491048 0.166329 -0.020907 0.029681 0.978837 -0.008164 -0.201747 0.370773 0.085783 -0.095916 0.126447 0.642983 0.399953 -0.339683 -0.238433 0.437965
brasil 0.212353 -0.294015 0.031219 0.022058 0.104972 0.112463 -0.103957 -0.026764 0.601218 0.128638 -0.107634 0.385443 -0.536696 0.243370 -0.054961 0.018222 0.167093 -0.350046 -0.389775 -0.234489 -0.203800 0.598814 0.145337 0.240310 0.115437 -0.143678 0.071693 0.252492 0.012983 -0.054821 0.113188 0.282996 0.639673 -0.217931 0.135441 -0.345623 0.285028 -0.310907 -0.038021 0.068765 -0.343835 -0.059777 -0.244684 0.182781 0.201991 -0.079151 -0.305305 -0.417418 0.017805 -0.051790
hoje 0.014588 -0.075130 -0.415350 0.152149 0.098022 0.221092 -0.093409 0.073498 0.077150 0.020449 0.025099 -0.160857 -0.179311 -0.046346 -0.003283 -0.064618 -0.203548 0.014607 -0.206477 0.193436 0.049305 -0.208671 0.015489 0.140213 0.126257 0.141900 0.454723 0.201972 -0.146817 -0.049682 0.145152 -0.047170 -0.139808 -0.123383 0.076653 -0.339470 0.010163 -0.189837 -0.013684 0.064080 0.150035 0.035277 -0.219265 0.048935 0.061770 0.043622 -0.191371 -0.140754 -0.246051 0.039903
essa 0.016027 -0.308399 -0.088860 -0.240122 -0.011707 0.040554 0.210341 -0.241671 -0.180227 -0.321777 0.133245 -0.048486 -0.025631 0.311914 0.205103 0.037084 -0.336846 -0.092392 0.270359 -0.240821 0.046129 -0.399189 0.171854 0.375374 -0.223891 0.088172 0.469516 0.067846 -0.530793 0.107704 0.030813 0.410608 0.159873 0.291759 -0.137621 -0.246621 0.371470 0.411391 0.099508 0.090460 0.179925 -0.526981 -0.060828 0.124069 0.427695 0.023383 -0.147908 -0.016531 0.243948 -0.191022
esse 0.131433 -0.156229 -0.008291 0.205313 -0.478839 -0.132020 0.135131 0.048920 -0.454057 0.030946 0.323216 -0.139511 0.139471 0.214814 0.311253 0.075110 -0.205937 0.106464 -0.091119 0.041848 0.096077 -0.410860 -0.427303 -0.121769 -0.204411 0.120599 0.262225 0.265771 -0.184053 -0.392517 -0.573234 -0.020862 -0.369234 0.034928 0.321301 -0.419202 0.185418 0.201880 0.164757 -0.385477 0.276020 0.159617 -0.304836 0.189215 -0.216267 -0.138118 0.102887 0.287639 -0.189525 0.281371
novo 0.222634 -0.303219 0.167203 0.186295 -0.064273 -0.042018 0.064409 0.126138 -0.132769 -0.071698 -0.180246 -0.024683 -0.176949 0.056258 0.258701 0.120463 -0.005437 -0.193839 0.029928 0.229522 0.110852 -0.132863 -0.350347 -0.101377 0.183517 -0.209801 -0.091246 -0.130663 0.132898 0.058791 -0.124974 -0.150406 0.056109 0.089704 0.141048 -0.085580 -0.033921 -0.252903 0.044351 0.126967 -0.006321 -0.027162 -0.108188 -0.239653 0.073350 -0.231617 0.090190 0.306234 -0.214903 0.100591
sendo -0.299294 -0.146497 -0.131554 0.279099 0.153515 -0.185867 -0.044549 0.306192 -0.021300 0.081498 0.065531 -0.134242 -0.182160 -0.016081 -0.129243 0.056758 0.100789 0.085448 -0.158445 -0.187485 -0.323375 -0.350532 0.180007 -0.182823 -0.104557 -0.260329 0.038403 0.094590 0.083447 -0.169135 0.177920 -0.300942 -0.249726 -0.446309 0.423028 0.146626 -0.190428 -0.321840 -0.273011 0.302445 -0.210398 -0.423703 0.326727 -0.186796 0.222447 0.385724 0.154932 -0.268935 -0.140865 0.152246
tinha -0.229592 -0.004364 -0.158718 -0.089684 -0.432376 0.083416 0.559030 0.194355 -0.295309 -0.530706 -0.484941 -0.336152 0.368529 -0.729669 0.186083 -0.066540 -0.095952 0.071451 -0.172196 -0.613098 0.242696 0.101390 0.013297 -0.422074 -0.142140 -0.311372 -0.203711 -0.419029 0.011152 -0.114200 0.209742 0.289209 0.032193 -0.263640 0.621213 0.381054 -0.405775 -0.180445 -0.857676 0.362208 -0.326511 0.000146 0.077074 0.181452 -0.072105 -0.199898 0.565140 0.264744 0.099509 -0.251381
mundo -0.123875 -0.242562 0.154053 0.050969 0.107877 0.270647 0.086816 -0.059746 0.807016 0.125970 0.060163 0.324137 -0.603785 0.174565 0.148282 0.207626 0.152771 -0.529242 -0.138179 -0.162671 -0.660489 0.759887 0.145408 0.196145 0.075445 0.021507 -0.023688 -0.305302 0.445305 0.035196 0.184100 0.100223 0.486478 -0.395104 0.313639 -0.151737 0.645725 -0.395042 -0.340685 0.008599 -0.345826 0.082738 -0.220208 0.082496 0.418116 0.201919 -0.081393 -0.441651 0.253911 0.136546
final -0.123543 -0.132307 -0.168872 -0.099622 0.116690 -0.102942 -0.034451 0.033099 0.317260 0.362510 0.002644 -0.180592 -0.636992 0.552341 -0.009041 0.167027 0.069207 -0.297377 -0.759835 0.011722 0.009177 0.531544 0.084156 0.302484 0.163499 -0.085813 0.063774 -0.489826 0.289748 -0.238384 -0.089789 0.045104 0.257877 -0.081045 -0.032415 0.025987 0.203979 -0.285514 0.188087 -0.077448 -0.621201 0.036940 -0.325187 0.090060 -0.066411 -0.207371 -0.265509 -0.514030 -0.329777 -0.106241
pelos 0.058861 -0.512428 0.386661 -0.274916 -0.062525 -0.437733 -0.348801 0.290889 -0.040138 -0.299136 -0.446632 -0.530755 0.292138 -0.227775 0.209553 -0.051372 -0.155338 0.322194 0.004516 0.039823 -0.228009 -0.003517 0.843845 -0.356659 -0.716537 0.131803 0.094251 0.060968 0.130164 -0.073444 0.019744 -0.032694 0.218417 0.141569 0.231062 0.364168 -0.194063 -0.298581 -0.083368 0.142071 0.182560 -0.156016 -0.323274 0.040182 -0.343657 0.186487 -0.078913 -0.483020 -0.426827 0.427801
cada -0.024052 0.090000 0.042206 0.133483 -0.178231 -0.267949 0.253669 0.131383 0.048347 0.025937 -0.110917 -0.058392 0.193274 0.100647 0.268256 0.190679 -0.314689 -0.230812 0.134897 0.078994 0.607596 -0.523659 -0.035313 0.005899 0.145702 -0.148491 0.739971 -0.036245 -0.026999 -0.014464 0.105819 -0.120072 -0.012804 0.233025 0.044998 0.133645 -0.006227 -0.283933 0.283841 0.006755 0.285524 -0.119949 0.006834 -0.300766 -0.003690 -0.225663 0.118091 -0.092668 -0.530567 0.013195
outro 0.348288 -0.250413 -0.046879 0.417541 -0.125637 -0.324053 -0.070180 -0.044469 0.081973 0.121305 -0.134014 0.290862 -0.207453 0.046695 0.211457 0.240064 -0.290330 0.041930 -0.044227 -0.078032 0.371031 -0.202271 -0.568434 0.035327 -0.220676 -0.405689 0.238055 0.447475 0.106575 -0.291674 -0.205914 -0.008476 0.039717 0.107720 -0.161724 -0.091915 0.067613 -0.348545 0.221719 -0.016008 0.192423 0.448651 0.061251 0.047699 0.093597 0.077174 0.339173 0.309796 -0.294528 -0.000123
qual 0.153193 -0.184572 -0.019942 0.251425 0.120470 -0.340758 -0.186289 -0.299329 0.026139 0.197072 -0.096459 0.129663 -0.349169 0.145415 -0.361378 -0.007830 0.474572 0.186237 -0.331896 -0.098670 -0.156227 0.450907 -0.031200 0.301639 0.293275 0.105314 -0.045494 0.027818 0.164632 -0.175199 0.095994 0.233263 0.093572 -0.184115 -0.296528 -0.047487 0.122909 -0.230305 0.092443 -0.289669 0.267827 -0.295370 0.028120 0.231376 0.277483 -0.464513 -0.279494 -0.149983 -0.528923 0.025919
melhor 0.065646 -0.208717 0.023961 0.094829 -0.028325 -0.042678 0.118089 0.032318 0.059533 -0.047558 -0.164898 0.105890 -0.138127 0.282788 0.237961 -0.062248 -0.154841 -0.282300 -0.156797 -0.209769 0.088505 -0.011095 -0.108049 0.345934 0.043043 -0.202190 0.035894 -0.151100 -0.002473 0.390705 -0.249692 0.040952 -0.024848 0.041634 -0.041998 -0.195828 0.180229 -0.107552 0.215418 -0.152124 -0.001289 0.121482 0.021621 -0.331723 -0.136823 -0.087174 0.063524 0.045393 -0.241286 0.052685
países -0.342586 0.947749 0.279600 -0.423796 -0.153709 0.382047 0.218023 -0.152155 0.450438 0.185514 -0.067901 -0.394290 0.090284 0.239684 -0.000590 -0.124889 0.520333 0.033916 -0.476797 0.117411 0.412950 -0.345550 -0.118762 0.009403 -0.099093 0.644353 -0.089818 0.412494 -0.377030 0.081106 0.278437 -0.303435 0.194435 -0.701414 -0.120060 -0.072288 0.361829 -0.767751 0.361089 0.541462 -0.042738 0.134440 0.155779 -0.084043 0.612730 0.449424 -0.272460 0.834914 0.403820 0.504123
nome 0.168148 0.039154 -0.037062 -0.194295 0.451126 -0.192836 -0.222778 -0.097451 0.218627 0.124295 -0.371289 0.140238 -0.326600 0.003680 0.184209 0.093858 -0.043461 -0.083973 0.170969 0.089765 -0.529907 0.667351 -0.068092 0.713441 0.259945 -0.086715 -0.054139 -0.000477 0.056581 0.205616 0.350594 -0.063832 0.429622 0.000608 -0.576441 0.089832 0.027787 -0.169112 -0.229743 0.212834 -0.091193 0.081903 -0.033588 -0.347996 0.512753 0.071720 0.428028 0.393073 -0.072503 0.209251
rio 0.121171 0.071226 0.092323 -0.110317 0.448516 0.121627 -0.431793 -0.428475 0.513200 0.293046 0.064629 0.581472 -0.518452 -0.607597 0.000283 -0.162441 -0.114278 -0.434731 -0.467392 -0.296081 -0.334271 0.642373 -0.404046 0.589632 -0.603386 -0.229100 0.459985 0.137513 0.480218 -0.638369 0.425757 -0.162406 0.694250 0.034365 0.115751 -0.384490 0.008676 0.088710 -0.290890 0.019775 -0.171074 0.003990 -0.291003 0.265571 0.322224 0.361246 -0.304416 -0.573457 0.491310 -0.454516
nova -0.059551 -0.112828 0.077349 0.315387 0.456233 -0.117668 0.370031 0.395491 -0.412163 -0.432821 0.461204 -0.191729 -0.128655 0.309478 -0.308108 -0.163940 0.188301 0.022362 0.355463 0.119580 0.261803 0.242795 -0.320786 0.193026 -0.272255 -0.423221 -0.195175 -0.318494 -0.341729 0.064042 0.011943 -0.138116 0.537308 -0.064113 -0.197303 -0.063653 -0.117403 0.208932 0.332481 0.108114 -0.246876 -0.194837 0.161801 0.275062 -0.032274 -0.107575 0.017136 0.074414 -0.220492 0.018666
— 0.185150 -0.094831 0.123581 -0.320052 0.177534 0.114370 -0.012526 -0.253433 -0.303670 -0.121172 0.018718 0.061587 -0.010697 -0.102353 -0.001152 -0.262078 0.123185 0.289340 0.102145 -0.157211 -0.006150 -0.020063 0.069490 0.029741 0.086776 0.240732 -0.128817 -0.039531 0.589219 -0.372318 0.320934 -0.101554 -0.074335 -0.022577 -0.084281 -0.113512 0.154183 0.333087 0.033762 -0.083751 -0.077764 -0.173977 0.219829 -0.255421 -0.243025 0.085372 -0.057916 -0.025857 0.248940 -0.023375
milhões 0.855536 0.466643 0.711908 -0.686147 0.068758 -0.288866 -0.393290 0.316710 0.089856 0.277551 -0.391736 -0.445078 0.236405 0.056273 0.161821 0.092754 -0.230778 -0.366762 -0.195492 0.219372 -0.000294 -0.022520 0.092075 -0.359562 0.730033 -0.088872 -0.058063 -0.066583 -1.032912 -0.333067 0.584339 -0.283157 -0.313958 -0.981513 -0.240370 -0.564914 0.214116 -0.033562 0.312721 0.672347 -0.181732 -0.128489 -0.405278 -0.425080 -0.384665 0.130758 0.202833 -0.139046 -0.024513 -0.101770
seja -0.059944 -0.253504 -0.158449 0.415407 -0.112418 -0.155326 0.176580 0.320024 0.125813 -0.009009 0.071131 -0.089162 0.163240 -0.126455 0.105097 0.226038 -0.009962 -0.066091 -0.452804 -0.420680 -0.106773 -0.465459 0.125708 0.014427 -0.131940 -0.113094 0.307362 0.049217 -0.280245 -0.364819 0.477251 -0.277117 -0.045092 -0.060919 0.569875 0.505676 -0.268005 -0.040823 -0.144343 0.315061 -0.421553 0.123589 0.344831 0.009888 0.149867 0.310048 0.721037 -0.086713 -0.178176 -0.082503
nacional 0.400746 -0.143865 0.050332 0.169510 -0.074750 0.011623 0.183089 -0.115617 -0.144533 -0.188445 0.001436 -0.029397 -0.099733 0.182389 0.226689 0.060369 0.093757 -0.140657 0.109442 0.002930 0.094090 -0.042017 -0.258761 -0.102684 -0.192379 -0.231654 0.032461 0.020060 -0.074186 0.237527 0.104501 -0.033854 0.287389 -0.109874 0.082754 -0.092629 -0.288965 -0.178241 0.326656 -0.096404 -0.142161 0.121211 -0.090906 0.177158 -0.110088 -0.067630 -0.172402 0.252354 0.112921 -0.048977
vida 0.026372 0.112605 0.086915 0.065780 0.241559 0.084972 0.134107 -0.125033 0.335377 0.192372 0.007058 -0.289192 0.165481 0.198957 -0.400319 0.408422 0.025755 -0.277108 -0.291096 0.363355 -0.352975 0.419106 -0.201166 0.560682 -0.004083 -0.006491 -0.036421 -0.196261 -0.024634 0.086960 -0.001392 -0.315076 -0.301667 -0.449153 0.008495 0.350095 0.069053 -0.350561 0.119201 -0.599193 0.340757 0.631760 -0.035538 0.149135 -0.432404 0.024498 0.369774 -0.045191 -0.177745 -0.145264
num -0.025548 0.113558 0.301906 -0.127629 -0.037799 -0.391704 0.295749 0.238383 -0.804466 0.045755 -0.159805 -0.586574 0.189720 -0.086157 0.543554 0.191342 -0.056059 0.390641 0.267379 0.168863 0.389449 -0.441930 -0.029749 -0.155623 -0.639943 0.268958 0.177377 0.109387 0.233322 -0.628132 0.193825 -0.239511 -0.696056 0.394870 -0.046816 -0.116361 -0.407510 0.388914 -0.019256 -0.714299 0.384430 0.398765 -0.932307 -0.273512 0.071349 0.370676 -0.053730 0.513642 -0.320745 -0.104777
menos -0.018887 0.052516 0.055239 0.175829 -0.152048 -0.198506 -0.137261 0.094732 0.063391 0.017989 0.314537 0.618575 0.125309 0.344052 -0.034748 -0.131561 -0.203520 0.039333 -0.308931 -0.182725 -0.058634 0.131555 -0.032264 0.084319 0.582768 -0.251763 0.160675 0.169153 0.006317 -0.072456 0.363415 -0.026225 0.156343 -0.275997 -0.210867 0.107332 0.572540 -0.068017 0.200171 0.304853 -0.118716 0.260302 0.219042 -0.189365 0.267409 0.284194 -0.144798 -0.348711 -0.149473 -0.623619
união -0.007893 0.401691 -0.206525 0.411710 -0.188789 -0.289792 -0.230356 -0.583005 -0.387854 0.383031 -0.047456 -0.263732 -0.125971 -0.019878 -0.692766 0.307152 0.018697 -0.717659 -0.534556 0.119970 -0.439456 0.274210 -0.450073 -0.032509 -0.404582 0.010008 0.125678 0.099563 0.299482 0.175454 0.402693 -0.094524 -0.337337 -0.461864 -0.048808 0.150256 0.087548 -0.407880 0.176356 0.382259 0.356717 0.547876 0.295003 0.061742 -0.412699 -0.300698 -0.356893 -0.103393 -0.262045 0.293715
europeia -0.205403 -0.195952 0.062490 -0.089326 -0.263055 -0.165287 0.547798 0.048855 0.313088 -0.720601 -0.218643 -0.172437 0.220403 0.453194 0.299711 0.313904 0.221614 0.022400 -0.005775 0.085795 -0.088844 -0.172418 -0.173247 -0.286400 -0.052379 0.090339 -0.526603 0.048122 -0.292378 0.154930 -0.168316 0.025020 0.145790 -0.336564 0.077686 -0.016390 -0.153802 -0.209085 0.480865 0.110543 -0.489087 -0.148888 -0.076937 0.475478 0.008791 -0.208583 -0.282875 -0.182692 0.152570 0.026294
qualquer 0.030312 -0.195208 -0.202722 0.050562 -0.149273 -0.196429 0.323274 -0.012819 -0.250936 0.059716 0.034848 -0.001884 0.018763 0.406775 0.391719 0.264462 -0.210200 -0.081701 0.138936 -0.230490 0.266368 -0.393446 -0.012113 -0.006699 -0.211034 0.017810 0.339526 -0.047744 -0.257657 -0.120489 0.074845 -0.059045 0.226677 0.064727 -0.014962 -0.117402 0.008000 0.245009 0.067247 -0.081477 0.147741 0.030747 -0.223549 0.053585 -0.067813 0.073983 0.365557 0.311965 -0.145532 -0.126383
sempre 0.092632 -0.036899 -0.019834 -0.033547 -0.042317 0.132918 -0.006105 0.029156 0.158406 -0.099442 -0.135618 0.112253 -0.073188 0.036490 -0.007724 -0.002858 -0.102185 -0.026683 -0.059331 0.077333 -0.182678 -0.168084 0.086768 0.276374 -0.048498 0.176911 0.224707 0.098299 -0.053656 0.039098 -0.076286 -0.003749 -0.260904 0.052518 -0.022453 -0.108812 0.270592 -0.067683 -0.066003 -0.039209 0.174462 0.162020 0.025670 0.052583 0.061183 0.128392 -0.030196 -0.027937 -0.222434 -0.049799
jogo -0.054346 -0.152215 -0.073390 0.006153 0.131246 0.253084 0.126727 0.185278 0.421937 0.328909 -0.193850 0.234002 -0.735020 -0.057847 0.352153 -0.001708 -0.242921 -0.230873 -0.229340 0.156105 -0.208022 0.290840 0.132221 0.448078 0.182592 -0.080051 -0.009854 -0.216896 0.106643 -0.024278 0.043426 0.125918 0.506980 -0.132478 -0.178443 0.270817 0.581315 -0.352000 -0.093403 0.225973 -0.140691 0.083969 0.101266 -0.238234 0.442759 -0.118455 -0.167044 -0.233027 -0.045615 0.044221
região 0.272517 0.770377 0.105674 0.342466 0.256824 -0.143529 -0.167722 0.246226 0.042999 0.135435 -0.119071 0.012904 0.239760 -0.287945 -0.556606 -0.033201 0.542496 -0.404490 -0.592035 0.631661 -0.410909 -0.098285 -0.450596 0.397387 -0.528569 0.415083 -0.709035 0.112734 0.008269 -0.499339 0.422312 -0.133929 0.199232 -0.591860 0.031052 0.404572 -0.170462 -0.047072 -0.172354 -0.189791 0.588107 0.245198 -0.206946 0.051071 -0.144155 0.081384 -0.235880 -0.297284 -0.297713 0.153840
alguns 0.108379 -0.268218 -0.081900 -0.138854 -0.161142 -0.217005 -0.367956 0.292230 0.084428 -0.294085 0.317324 -0.004410 -0.003881 -0.134897 0.140132 0.228934 -0.392669 0.159309 0.228052 0.532420 -0.169869 0.369664 0.252833 -0.222361 -0.582716 0.034508 0.375989 0.175436 -0.044090 0.024306 -0.332200 0.301191 0.194383 -0.366693 -0.106530 -0.107656 -0.175671 0.023127 -0.033116 -0.045085 0.197536 0.400162 -0.063778 0.059856 0.071744 0.052408 0.114267 -0.485423 -0.304971 0.062056
minha -0.376982 -0.317659 -0.017061 0.071816 -0.142436 0.068284 0.045212 -0.621581 0.173033 -0.150237 -0.227917 -0.224058 -0.001951 0.072535 0.084847 -0.034713 0.288780 -0.482566 0.402377 -0.152294 -0.150147 -0.215958 -0.205390 0.288102 -0.172150 -0.114400 0.254855 0.035061 -0.315501 0.278261 -0.034943 0.273099 -0.180484 0.160164 -0.201254 0.141219 0.402012 0.357899 -0.300187 -0.018833 0.482592 -0.411367 0.180658 0.262681 0.155336 -0.356454 -0.070136 -0.100700 -0.100042 -0.552537
dias -0.290204 0.408149 0.354824 -0.442417 0.218363 0.350950 0.429277 0.024794 0.087763 0.695730 -0.457178 -0.253476 -0.058067 0.560090 0.023353 -0.329826 0.506230 0.443254 -0.291086 0.039480 0.460854 -0.332016 -0.486776 -0.188326 0.545561 0.298977 0.269361 0.094147 -0.514194 -0.360229 0.018869 -0.581718 -0.297396 -0.494525 0.017799 -0.075981 0.468303 -0.395078 0.140936 0.372481 0.129407 0.066477 0.179220 0.003039 0.580137 -0.109976 -0.193382 0.028206 0.372874 -0.509463
política 0.014165 0.252661 -0.080763 0.186071 0.101005 0.125053 0.244354 -0.226913 -0.034685 -0.219718 -0.012972 -0.118714 0.252428 0.291917 -0.165785 0.203663 -0.381976 -0.221100 -0.305943 0.139202 -0.287568 0.129078 0.053294 0.409130 -0.239680 0.265645 -0.147458 -0.034839 -0.127304 0.382220 0.114745 -0.177797 -0.012234 -0.321546 0.232967 0.387858 0.092678 -0.234618 0.344253 -0.226204 0.077253 0.109272 0.126173 0.388808 -0.213032 -0.191365 -0.202264 0.149640 -0.028762 -0.184896
mil 0.769311 0.189204 0.892477 -0.576289 -0.008538 -0.471593 -0.260536 0.133985 0.091533 0.128593 -0.313236 -0.157271 0.329855 -0.110141 -0.130324 0.018008 -0.021934 0.036767 -0.124273 0.017247 0.021410 0.052775 0.054887 -0.495131 0.674981 -0.064407 0.175747 -0.177079 -0.855987 -0.447654 0.310294 -0.078125 -0.155983 -0.377701 -0.044528 -0.173636 0.272751 -0.053124 0.182441 0.042069 -0.008511 -0.156391 -0.520610 -0.241051 -0.193195 0.038041 0.079124 -0.359612 0.163804 -0.139891
paulo 1.228561 0.487561 -0.125646 0.049576 0.089481 0.695805 0.241337 -0.409204 -0.413348 0.089484 0.075165 0.712038 0.007490 -0.732190 0.515758 0.297985 -0.353434 0.129637 0.096909 0.472535 0.009945 0.031284 -0.105798 0.669589 0.044003 0.461945 0.577782 0.197407 -0.171478 -0.119683 -0.243613 0.695736 -0.361117 -0.090655 0.096302 -0.478963 -0.523538 -0.466857 -0.691852 0.320782 -0.330537 0.354914 -0.265347 0.526334 0.303193 -0.978478 -0.007585 -0.609843 0.114795 -0.592489
lugar 0.196017 -0.089475 -0.534471 -0.170213 -0.000162 0.366502 0.023062 0.056975 0.571830 0.525620 -0.183707 0.134683 -0.015729 0.082692 -0.075412 0.051371 0.222823 -0.205630 0.200066 0.414073 -0.423838 0.221742 -0.116891 0.409202 0.236697 -0.120980 0.122779 -0.292819 -0.002919 -0.094735 -0.114354 0.031716 0.495144 -0.078162 -0.302192 0.380677 0.380258 -0.347454 -0.265217 0.237330 -0.008259 0.179955 -0.034028 -0.253344 0.746832 -0.302674 -0.012432 -0.209106 0.014603 0.377858
outras 0.005205 0.369716 -0.024113 -0.074360 -0.272365 0.029284 0.041510 0.185542 -0.246916 0.081256 0.160598 0.364982 -0.137969 -0.328010 -0.314512 0.560258 0.162977 -0.080093 0.040804 0.248560 -0.036345 0.108654 0.229861 -0.026263 -0.007502 -0.495795 0.489744 0.322741 -0.276799 0.156921 0.347732 0.402680 -0.260231 -0.127536 -0.017038 0.153040 0.392865 -0.225018 0.100636 -0.296519 -0.009652 0.176276 -0.366009 -0.161260 0.076143 0.147293 0.002281 0.229730 0.181821 -0.118724
senhor 0.205896 -0.510629 0.343280 0.011079 0.117583 -0.104606 -0.378875 -0.093854 0.175407 -0.018734 -0.379749 -0.127313 -0.425391 0.039534 -0.222917 0.181460 -0.015577 -0.230575 0.143092 -0.152752 -0.248943 0.338572 -0.029379 0.395833 0.313645 0.073373 -0.079469 0.175492 0.223867 0.038549 0.350730 -0.373046 0.132420 -0.166636 -0.219482 -0.153225 0.164753 -0.341148 -0.260551 0.277551 -0.440672 0.118774 0.239037 0.141610 0.262274 0.033182 0.035165 0.046742 -0.062843 -0.092824
todo 0.124309 0.166498 -0.186954 0.116362 0.252261 -0.604900 -0.099091 -0.083686 0.066095 0.094106 -0.165749 0.278702 -0.175585 -0.160419 0.548367 -0.291391 -0.001780 -0.186482 0.170783 0.312105 0.276397 0.051210 -0.096230 -0.058471 0.254684 -0.138063 0.172068 0.695885 -0.185360 -0.092361 0.257416 -0.014904 -0.210674 -0.274830 0.025842 0.131693 0.164954 -0.267698 0.053334 -0.158931 0.257392 0.299123 0.205142 -0.430465 0.045767 -0.194926 0.080852 0.642731 -0.442096 -0.324689
estou -0.531357 -0.315500 -0.379542 -0.706702 -0.362458 0.372506 0.651980 -0.008364 0.408533 -0.469651 -0.555438 0.000943 0.519727 -0.950345 0.252659 0.013201 -0.002324 -0.019866 -0.162002 -0.189100 0.250652 -0.064729 -0.265350 0.686904 -0.288721 -0.062889 0.091946 0.005990 -0.283482 -0.226203 0.020783 -0.033203 0.800735 -0.173474 0.137897 0.170656 0.013377 0.327222 0.123344 -0.125838 -0.118435 0.571152 -0.420442 0.322070 -0.074332 -0.005841 0.459108 -0.009053 -0.194132 -0.133235
numa -0.237694 -0.363729 -0.121541 -0.374028 0.285118 -0.020501 0.099020 -0.162538 -0.202870 -0.430131 0.036053 -0.160584 -0.154618 0.080297 0.439289 0.019745 -0.335036 0.021015 0.291663 -0.290053 0.350904 -0.381412 0.275281 0.078560 -0.425408 -0.097720 0.562864 0.049875 0.147155 0.008516 0.274062 0.053960 -0.235077 0.364722 0.113115 -0.201060 -0.165796 0.150545 -0.043175 0.249518 -0.126046 -0.396670 -0.083812 -0.121281 0.417128 0.467539 -0.129725 -0.050267 0.187948 -0.394630
regulamento -0.414328 -0.157520 -0.236117 0.116950 0.399437 -0.189458 -0.141103 -0.445098 0.683656 0.370576 -0.050320 0.345941 -0.256121 -0.578328 0.804082 0.000673 0.121460 0.824331 -0.547378 -0.198572 -1.044563 0.973334 -0.475644 0.533386 0.186448 -0.434606 0.467524 -0.425554 -0.553371 0.264255 0.137887 0.268812 0.294992 -0.204030 -0.019190 0.692954 0.120471 0.406075 0.710205 0.935250 -0.977871 0.036088 0.078826 0.251567 0.066496 0.253921 0.047940 0.552231 -0.000300 0.605762
fez -0.317559 -0.174159 -0.207701 -0.262206 -0.063814 0.034797 -0.072128 0.242462 -0.315616 -0.237045 -0.092149 0.014654 0.256868 0.021768 -0.540952 -0.290596 -0.325655 0.037622 -0.234166 -0.703209 0.309837 0.111641 -0.036683 -0.220797 0.111063 -0.679076 -0.568705 0.093225 0.021046 0.181688 -0.040404 -0.081404 0.256842 0.230299 -0.160999 0.259335 -0.200551 -0.046638 -0.343420 0.020166 -0.209578 0.372557 0.116841 -0.315540 0.118504 -0.005545 0.111480 0.042514 0.370547 -0.200931
quer -0.137000 -0.389434 -0.184534 -0.003059 0.333824 0.227648 -0.303463 -0.003176 -0.242738 -0.199268 -0.116267 0.040246 0.289614 -0.393081 -0.060262 0.189981 0.149836 -0.280499 -0.195802 -0.615109 0.012927 -0.099003 -0.226384 -0.394019 -0.110832 0.057764 -0.491626 -0.314071 -0.326984 0.336825 0.086930 0.049171 0.080428 0.030642 0.328054 -0.296282 0.141295 0.035121 -0.066734 0.057121 -0.080067 0.456964 -0.011816 -0.107978 0.097437 -0.007883 0.173169 0.120329 0.143979 -0.192148
neste -0.299723 0.048835 -0.166790 0.279634 0.056326 -0.415327 -0.098709 -0.072370 -1.078234 -0.179054 0.292582 -0.122252 -0.130186 -0.052305 0.492922 -0.834288 -0.311676 0.101378 -0.223620 0.185866 0.396619 -0.628092 -0.280928 -0.199317 -0.030615 0.121302 0.604443 0.343143 0.014563 0.389477 -0.251964 -0.093529 -1.243399 0.251210 0.354482 -0.115176 -0.157760 -0.400533 0.484205 0.002195 0.080080 0.176478 -0.478430 0.026275 -0.446913 0.391200 0.080166 0.357062 -0.064501 0.059695
fim -0.323180 -0.329842 -0.138182 -0.183594 0.261040 -0.277160 -0.062911 0.062265 0.250571 0.349491 -0.095115 0.040791 -0.543172 0.306843 0.080270 0.371512 -0.097891 -0.246882 -0.375403 0.086310 -0.063539 0.848101 -0.036619 0.341068 0.444771 -0.155416 0.100334 -0.381990 0.564637 -0.080964 0.101891 -0.098848 0.082588 -0.281407 -0.028451 -0.139358 0.354290 -0.131346 0.200766 0.431277 -0.412197 0.143162 -0.383007 0.006892 0.286094 -0.101638 -0.158598 -0.351112 -0.177540 -0.503488
nem 0.051802 -0.295810 -0.089062 0.030764 -0.042408 -0.043964 0.036787 -0.142078 -0.134067 -0.174152 -0.004552 -0.003797 -0.073040 -0.066119 -0.038409 -0.087694 0.135847 0.010572 -0.023713 -0.096497 -0.184486 -0.160617 0.135582 -0.052701 -0.032537 0.046800 -0.045373 -0.010586 -0.044533 -0.027780 0.102825 0.012620 -0.005998 -0.115443 -0.082099 -0.207714 0.133758 0.014218 -0.165404 -0.044634 0.167996 0.029002 0.022030 0.202438 0.046530 0.104984 0.174084 0.078730 -0.259397 -0.197411
artigo -0.013902 -0.290182 0.225378 -0.340159 -0.010763 0.268040 -0.176504 -0.358305 0.265607 0.426577 -0.788407 -0.130348 -0.270042 0.261807 -0.010851 -0.119931 0.128679 0.317618 -0.001800 0.003871 -0.742609 0.449095 0.010371 0.264245 0.816113 0.119563 0.105298 -0.486037 -0.212660 -0.159815 0.518706 0.391810 0.250434 -0.332229 -0.130126 0.516837 0.348461 -0.331003 -0.075010 0.376207 -0.568101 -0.168044 -0.040257 -0.059508 0.527577 -0.029967 0.238974 -0.022758 0.462554 0.574757
processo -0.165399 -0.051590 -0.068326 -0.138953 0.303167 0.319225 -0.200523 -0.027318 0.379520 0.332668 -0.256559 0.316214 -0.472129 0.096452 0.275404 0.442557 -0.644230 -0.088565 -0.048406 0.170785 -0.514718 0.365522 0.305507 0.288316 0.376397 0.036158 -0.013625 -0.304833 -0.061493 -0.050519 0.450385 -0.082617 0.557773 -0.107214 0.218380 0.351032 0.371156 -0.199079 -0.199198 0.594501 -0.162118 -0.109047 0.062781 0.205673 0.647161 -0.208379 -0.322222 0.177666 -0.002021 -0.053069
desta -0.234008 -0.340354 -0.168396 -0.461606 0.032566 0.033257 0.397779 -0.157400 -0.039539 -0.095790 0.172392 -0.155604 0.119907 0.271509 0.024556 -0.243210 -0.232116 0.053433 0.269045 -0.173790 0.560877 -0.801487 0.457677 0.069222 0.209892 0.099017 0.969104 0.136136 -0.039413 0.075208 -0.020630 0.422841 0.312581 0.889209 0.386847 0.109946 0.011745 -0.288296 0.217536 -0.073920 -0.290602 -0.817351 -0.008603 0.235473 0.612626 -0.517823 -0.230843 -0.271297 -0.181822 -0.162603
estados -0.153741 1.561396 0.218386 -0.467482 0.117797 0.251163 1.212294 0.127659 0.725037 0.111697 -0.194705 0.181954 0.524904 0.312908 -0.360246 -0.348865 0.521520 0.493110 -0.504816 -0.127876 -0.462354 -0.280750 0.183922 0.546112 0.145828 1.415417 -0.080363 0.117477 0.174987 0.438658 -0.706246 -0.307755 0.748936 0.151495 -0.235968 0.117878 -0.022669 0.291449 -0.419105 0.155444 -0.771721 -1.197266 -0.478005 0.345601 0.394060 0.430100 0.072277 1.488035 -0.155275 0.651852
pouco -0.211157 -0.228741 0.110414 0.046337 -0.311614 0.103857 0.242359 0.188066 0.181455 -0.162172 -0.057463 0.004824 -0.170313 0.023506 -0.170036 -0.139511 -0.030189 -0.065383 0.255851 0.465795 0.113662 -0.026480 -0.068609 0.170567 0.191434 -0.001707 -0.060147 -0.207976 -0.105884 -0.188071 0.122121 -0.328595 -0.005936 0.048773 0.051886 0.192578 0.511261 -0.545079 0.108871 0.445838 0.302424 -0.051416 0.048913 -0.040867 0.316646 -0.144903 0.152495 -0.160068 -0.426088 -0.113205
nesta -0.213974 -0.133080 -0.124383 -0.707818 0.414018 0.033153 0.561355 0.064656 -0.700774 -0.432206 0.114750 0.050429 0.046549 -0.125765 0.277928 -0.394043 -0.442568 0.312630 0.437874 -0.027001 -0.054828 -0.612095 0.357580 0.242453 0.431625 0.257400 0.898081 -0.292160 0.516964 0.569020 -0.359312 0.439055 0.046364 0.652027 0.626444 -0.220022 -0.092882 -0.351648 0.369533 0.472338 -0.551343 -0.816464 -0.567836 0.294689 0.561678 -0.091663 0.008124 -0.430857 0.141800 0.007114
decisão -0.082344 0.257169 -0.238356 -0.137311 0.222628 -0.271731 -0.204267 0.233931 0.081273 0.163421 -0.137735 -0.073790 0.037540 -0.133121 -0.103660 0.395066 -0.224374 0.092457 -0.827307 0.248830 -0.674391 0.005400 -0.239214 0.562624 0.301596 -0.050215 -0.303938 -0.402482 0.088758 -0.016255 -0.234777 -0.458163 -0.007210 -0.572289 -0.059700 0.232734 0.072987 0.103671 0.445101 0.031158 0.072885 0.311311 -0.104116 0.670875 -0.418121 -0.317755 0.112909 -0.232091 0.050347 0.315959
lado -0.148214 -0.373726 -0.113402 -0.051070 -0.319294 -0.130683 0.165349 0.098040 0.403762 0.182246 -0.001307 0.314205 -0.360624 0.054877 0.089996 0.415657 0.357476 0.129330 -0.015785 -0.150446 -0.546119 0.242217 -0.117736 0.507195 0.581752 -0.408960 -0.308314 -0.094169 1.049087 0.498129 0.396832 -0.163274 0.405767 -0.237113 -0.465320 0.236858 -0.133099 -0.126340 -0.353695 0.565488 0.326357 0.216078 -0.482860 -0.219041 0.707129 0.429025 -0.200558 -0.397442 0.025110 -0.375173
teve -0.357611 -0.098833 -0.261499 -0.038679 -0.079703 -0.037670 0.184388 0.315478 -0.192021 -0.270455 -0.181371 -0.241562 0.358774 -0.293773 0.014576 -0.313678 -0.246381 0.179471 -0.187488 -0.558245 0.300291 0.003303 -0.012804 -0.377669 -0.147208 -0.532250 -0.413409 -0.327154 -0.025637 0.230854 -0.051549 0.007213 0.058759 -0.099287 0.374732 0.349278 -0.099584 0.040446 -0.502774 -0.055333 -0.275215 0.155577 0.083399 -0.214249 -0.050572 -0.018306 0.175860 0.264901 0.300549 -0.254437
área 0.379751 0.762574 -0.004416 0.304440 0.244521 -0.004701 0.053567 -0.027421 0.129067 0.308539 -0.062961 0.003260 0.135289 -0.164621 -0.506870 0.055311 0.117962 -0.074667 -0.290419 0.375013 -0.321858 0.253101 -0.343657 0.456233 -0.445436 -0.103093 -0.523643 -0.085110 -0.312214 -0.128485 0.271305 -0.309336 0.130954 -0.521578 -0.000678 0.375825 -0.135477 -0.139851 0.101140 -0.118364 0.708141 0.557879 0.034563 0.003464 -0.373922 0.123346 -0.088876 -0.176017 -0.320785 0.218831
janeiro 0.339811 0.020410 -0.714074 -0.544046 0.391236 0.685666 0.255097 0.184478 0.426402 0.225032 -0.644563 -0.519789 -0.234129 0.051561 0.872258 -0.036130 -0.255549 0.107312 -0.329380 0.488543 0.159690 -0.163200 0.125645 0.292984 0.614916 0.064301 0.268348 0.425976 0.715467 0.229624 0.877223 -0.017974 0.265470 -0.927854 0.044582 -0.680164 -0.119155 0.242147 0.003326 0.290386 0.359845 0.534175 -0.992817 -0.231374 -0.805954 -0.419268 -0.155171 0.058957 0.227139 -0.119412
podem -0.622932 -0.260129 0.191376 -0.392367 0.491837 0.263847 -1.007653 0.141990 -0.343603 -0.091875 0.242864 -0.251723 0.723095 -0.224751 -0.148030 0.138053 -0.076045 0.143350 -0.320193 -0.183355 0.344353 -0.212903 -0.199411 -0.647972 -0.082197 -0.189714 -0.628030 -0.738018 -0.394006 0.647636 0.040479 0.473680 0.401849 0.626458 0.553972 -0.029453 0.668854 -0.068790 0.073354 0.170164 0.032137 0.277275 -0.290113 -0.423799 0.093741 0.109257 0.046670 0.232780 -0.166331 0.001269
sistema 0.023256 0.072109 0.186384 -0.040864 0.306769 0.253618 -0.096629 -0.063531 0.311494 0.276391 -0.042622 0.584224 -0.442279 -0.034210 0.342600 0.073162 -0.410302 -0.081084 -0.063056 0.033388 -0.557450 0.589198 0.119605 0.314784 0.112966 -0.024134 -0.140785 -0.261293 -0.026999 0.103849 0.409208 0.066485 0.555537 -0.087110 0.365809 0.379687 -0.061977 -0.104997 -0.076435 0.482906 -0.074221 0.015629 -0.034576 -0.214599 0.605907 0.265656 -0.354754 0.080720 -0.208566 0.013873
todas -0.113028 0.302160 -0.364797 0.000905 -0.054433 0.074987 0.029711 0.270511 0.173705 -0.028959 -0.158286 0.180977 0.275584 -0.122176 0.312449 0.152043 -0.243841 -0.067385 0.256089 0.375232 -0.176134 0.322759 0.132019 -0.214578 -0.160299 -0.211375 0.160398 0.020171 -0.163582 0.340456 0.166307 -0.060834 -0.337849 0.389365 -0.175395 -0.220861 0.126882 -0.054919 0.213875 -0.280680 -0.118685 -0.044241 0.383177 0.202085 0.041691 0.049110 -0.042978 0.000373 -0.682782 0.091647
mercado 0.216924 -0.131644 0.116394 -0.048982 -0.071627 0.225554 -0.070448 -0.282130 0.677782 0.189879 -0.071351 0.475069 -0.263518 0.114232 0.081895 0.037139 -0.360732 -0.348924 -0.555394 -0.083370 -0.318818 0.782981 0.382970 0.376609 0.102323 -0.137498 -0.073093 -0.139794 -0.085144 -0.075790 0.294383 -0.057838 0.462992 -0.201257 0.353149 -0.203780 0.178934 -0.284056 -0.181730 0.269126 -0.307405 -0.014495 -0.195000 -0.133254 0.205135 -0.033109 -0.620095 0.048194 -0.304587 0.024598
enquanto -0.184142 -0.159158 -0.260590 0.196333 0.285416 -0.153374 -0.154522 -0.070018 -0.037100 0.084157 0.107467 0.137240 -0.048243 -0.107732 -0.183774 -0.054397 0.119061 0.299310 0.046245 -0.264466 -0.084458 -0.104438 0.078440 -0.138504 0.094370 -0.077946 -0.161962 0.242037 0.211243 0.085181 0.070249 -0.018542 -0.340165 -0.227930 -0.149486 -0.120749 -0.075975 -0.034775 -0.171482 -0.022554 0.171104 -0.357791 0.050356 0.056084 0.422787 0.096910 -0.156490 -0.109169 -0.331746 -0.050935
the 0.022780 -0.140846 0.291438 -0.139226 0.166370 0.312190 -0.441425 0.332349 -0.402101 -0.159019 -0.205600 0.154413 0.052572 0.199142 0.230442 -0.303985 -0.130485 -0.379000 -0.446952 0.190292 0.338170 0.243607 0.042909 0.115163 -0.084553 -0.008094 0.241864 0.275515 -0.031875 -0.038196 -0.328533 0.243967 -0.241157 -0.069212 -0.111772 0.483568 -0.315137 0.397240 -0.065436 -0.205664 -0.106926 -0.474376 -0.290068 0.224201 0.247982 0.261712 0.081491 -0.060644 -0.161981 0.226465
nós -0.063146 -0.369035 0.038733 -0.065574 0.047958 0.069538 0.003153 0.161723 -0.018843 0.195630 -0.032595 -0.046191 -0.087533 -0.066679 -0.142537 -0.143174 -0.273396 -0.196551 -0.198161 0.318492 -0.017142 -0.359196 0.105018 0.214679 0.076772 0.610488 0.349758 0.408346 -0.104930 0.171627 -0.011864 0.013707 0.036508 -0.474027 0.050397 -0.088395 0.101973 -0.239492 -0.003326 0.082909 0.358975 0.172904 0.120157 0.067457 0.181765 0.304795 -0.145951 -0.117825 -0.014623 -0.173458
